<?xml version="1.0"?>
<opencv_storage>
<cascade>
  <stageType>BOOST</stageType>
  <featureType>HAAR</featureType>
  <height>20</height>
  <width>20</width>
  <stageParams>
    <boostType>GAB</boostType>
    <minHitRate>9.9500000476837158e-01</minHitRate>
    <maxFalseAlarm>5.0000000000000000e-01</maxFalseAlarm>
    <weightTrimRate>9.4999999999999996e-01</weightTrimRate>
    <maxDepth>1</maxDepth>
    <maxWeakCount>100</maxWeakCount></stageParams>
  <featureParams>
    <maxCatCount>0</maxCatCount>
    <featSize>1</featSize>
    <mode>BASIC</mode></featureParams>
  <stageNum>15</stageNum>
  <stages>
    <!-- stage 0 -->
    <_>
      <maxWeakCount>25</maxWeakCount>
      <stageThreshold>-1.0250071287155151e+00</stageThreshold>
      <weakClassifiers>
        <_>
          <internalNodes>
            0 -1 276 1.3417676091194153e-02</internalNodes>
          <leafValues>
            3.4658810496330261e-01 -4.4492441415786743e-01</leafValues></_>
        <_>
          <internalNodes>
            0 -1 288 4.4352775439620018e-03</internalNodes>
          <leafValues>
            -2.0923900604248047e-01 4.8602008819580078e-01</leafValues></_>
        <_>
          <internalNodes>
            0 -1 522 -1.2206455692648888e-02</internalNodes>
          <leafValues>
            4.0258052945137024e-01 -1.8913877010345459e-01</leafValues></_>
        <_>
          <internalNodes>
            0 -1 720 6.9400004576891661e-04</internalNodes>
          <leafValues>
            -2.7287623286247253e-01 2.8736963868141174e-01</leafValues></_>
        <_>
          <internalNodes>
            0 -1 185 7.0598036050796509e-02</internalNodes>
          <leafValues>
            1.2480923533439636e-01 -7.5801259279251099e-01</leafValues></_>
        <_>
          <internalNodes>
            0 -1 118 -4.2938880622386932e-02</internalNodes>
          <leafValues>
            -7.9968124628067017e-01 5.2226912230253220e-02</leafValues></_>
        <_>
          <internalNodes>
            0 -1 516 -1.5644277445971966e-03</internalNodes>
          <leafValues>
            3.1603461503982544e-01 -1.8428552150726318e-01</leafValues></_>
        <_>
          <internalNodes>
            0 -1 48 5.0010828999802470e-04</internalNodes>
          <leafValues>
            -1.7623123526573181e-01 2.9068666696548462e-01</leafValues></_>
        <_>
          <internalNodes>
            0 -1 613 -2.3656040430068970e-02</internalNodes>
          <leafValues>
            -7.1472740173339844e-01 8.6266778409481049e-02</leafValues></_>
        <_>
          <internalNodes>
            0 -1 635 1.7893098294734955e-02</internalNodes>
          <leafValues>
            5.0475601106882095e-02 -6.9760757684707642e-01</leafValues></_>
        <_>
          <internalNodes>
            0 -1 539 -1.7130151391029358e-03</internalNodes>
          <leafValues>
            2.8589817881584167e-01 -1.6273121535778046e-01</leafValues></_>
        <_>
          <internalNodes>
            0 -1 521 -1.0263732401654124e-03</internalNodes>
          <leafValues>
            2.6035588979721069e-01 -1.8432478606700897e-01</leafValues></_>
        <_>
          <internalNodes>
            0 -1 338 -8.7554119527339935e-03</internalNodes>
          <leafValues>
            3.8429313898086548e-01 -1.0480934381484985e-01</leafValues></_>
        <_>
          <internalNodes>
            0 -1 391 -6.8989996798336506e-03</internalNodes>
          <leafValues>
            3.5203412175178528e-01 -1.5410275757312775e-01</leafValues></_>
        <_>
          <internalNodes>
            0 -1 579 9.7448879387229681e-04</internalNodes>
          <leafValues>
            -1.2116681039333344e-01 3.3126825094223022e-01</leafValues></_>
        <_>
          <internalNodes>
            0 -1 421 -1.2904871255159378e-02</internalNodes>
          <leafValues>
            3.5853043198585510e-01 -1.1985500156879425e-01</leafValues></_>
        <_>
          <internalNodes>
            0 -1 199 2.5632426142692566e-02</internalNodes>
          <leafValues>
            6.6321849822998047e-02 -6.4988714456558228e-01</leafValues></_>
        <_>
          <internalNodes>
            0 -1 173 4.9380273558199406e-03</internalNodes>
          <leafValues>
            4.8839621245861053e-02 -7.3753482103347778e-01</leafValues></_>
        <_>
          <internalNodes>
            0 -1 371 -4.8185391351580620e-03</internalNodes>
          <leafValues>
            4.2668911814689636e-01 -9.7434453666210175e-02</leafValues></_>
        <_>
          <internalNodes>
            0 -1 587 -7.9724946990609169e-03</internalNodes>
          <leafValues>
            3.0590653419494629e-01 -1.2540498375892639e-01</leafValues></_>
        <_>
          <internalNodes>
            0 -1 596 1.2960625812411308e-02</internalNodes>
          <leafValues>
            -1.3917240500450134e-01 3.0517598986625671e-01</leafValues></_>
        <_>
          <internalNodes>
            0 -1 215 2.2282242774963379e-02</internalNodes>
          <leafValues>
            6.4661122858524323e-02 -7.6279336214065552e-01</leafValues></_>
        <_>
          <internalNodes>
            0 -1 695 -2.4770442396402359e-03</internalNodes>
          <leafValues>
            2.5516119599342346e-01 -1.5080533921718597e-01</leafValues></_>
        <_>
          <internalNodes>
            0 -1 278 5.2312822081148624e-03</internalNodes>
          <leafValues>
            5.0522554665803909e-02 -8.0268591642379761e-01</leafValues></_>
        <_>
          <internalNodes>
            0 -1 786 -3.9481692016124725e-02</internalNodes>
          <leafValues>
            -8.1283515691757202e-01 2.7229530736804008e-02</leafValues></_></weakClassifiers></_>
    <!-- stage 1 -->
    <_>
      <maxWeakCount>37</maxWeakCount>
      <stageThreshold>-1.0099695920944214e+00</stageThreshold>
      <weakClassifiers>
        <_>
          <internalNodes>
            0 -1 179 -1.7599374987185001e-03</internalNodes>
          <leafValues>
            4.1587716341018677e-01 -1.4079421758651733e-01</leafValues></_>
        <_>
          <internalNodes>
            0 -1 442 -7.2211781516671181e-03</internalNodes>
          <leafValues>
            2.2292147576808929e-01 -2.6641082763671875e-01</leafValues></_>
        <_>
          <internalNodes>
            0 -1 468 -2.2513642907142639e-02</internalNodes>
          <leafValues>
            3.8055837154388428e-01 -1.3084596395492554e-01</leafValues></_>
        <_>
          <internalNodes>
            0 -1 764 3.4512218553572893e-03</internalNodes>
          <leafValues>
            -2.3685683310031891e-01 3.0123108625411987e-01</leafValues></_>
        <_>
          <internalNodes>
            0 -1 674 -3.6350674927234650e-03</internalNodes>
          <leafValues>
            -5.9511190652847290e-01 1.2481823563575745e-01</leafValues></_>
        <_>
          <internalNodes>
            0 -1 493 -1.2776549905538559e-02</internalNodes>
          <leafValues>
            -7.2902911901473999e-01 5.6225232779979706e-02</leafValues></_>
        <_>
          <internalNodes>
            0 -1 183 4.3707944452762604e-02</internalNodes>
          <leafValues>
            8.5203394293785095e-02 -5.3021800518035889e-01</leafValues></_>
        <_>
          <internalNodes>
            0 -1 137 2.9451433569192886e-02</internalNodes>
          <leafValues>
            -1.1241027712821960e-01 3.7861520051956177e-01</leafValues></_>
        <_>
          <internalNodes>
            0 -1 206 2.3563614377053455e-05</internalNodes>
          <leafValues>
            -2.6840788125991821e-01 1.7565026879310608e-01</leafValues></_>
        <_>
          <internalNodes>
            0 -1 634 1.0090999305248260e-02</internalNodes>
          <leafValues>
            7.2388269007205963e-02 -5.4325228929519653e-01</leafValues></_>
        <_>
          <internalNodes>
            0 -1 535 7.3231067508459091e-03</internalNodes>
          <leafValues>
            -1.4610913395881653e-01 2.7734807133674622e-01</leafValues></_>
        <_>
          <internalNodes>
            0 -1 600 4.4512720778584480e-03</internalNodes>
          <leafValues>
            -1.4014545083045959e-01 2.9505932331085205e-01</leafValues></_>
        <_>
          <internalNodes>
            0 -1 338 -1.0043503716588020e-02</internalNodes>
          <leafValues>
            3.4619137644767761e-01 -1.1740303784608841e-01</leafValues></_>
        <_>
          <internalNodes>
            0 -1 131 -1.2110503390431404e-02</internalNodes>
          <leafValues>
            -6.4355051517486572e-01 7.0918284356594086e-02</leafValues></_>
        <_>
          <internalNodes>
            0 -1 331 -8.7566450238227844e-03</internalNodes>
          <leafValues>
            2.9188773036003113e-01 -1.3242925703525543e-01</leafValues></_>
        <_>
          <internalNodes>
            0 -1 608 5.9094503521919250e-03</internalNodes>
          <leafValues>
            5.8416366577148438e-02 -6.6077756881713867e-01</leafValues></_>
        <_>
          <internalNodes>
            0 -1 632 4.3970327824354172e-03</internalNodes>
          <leafValues>
            5.0355806946754456e-02 -6.9829910993576050e-01</leafValues></_>
        <_>
          <internalNodes>
            0 -1 323 1.0561401024460793e-02</internalNodes>
          <leafValues>
            -1.1966604739427567e-01 3.0219599604606628e-01</leafValues></_>
        <_>
          <internalNodes>
            0 -1 259 -8.6425216868519783e-03</internalNodes>
          <leafValues>
            -5.9887319803237915e-01 7.0815384387969971e-02</leafValues></_>
        <_>
          <internalNodes>
            0 -1 205 3.6510722711682320e-03</internalNodes>
          <leafValues>
            4.9334246665239334e-02 -6.0324525833129883e-01</leafValues></_>
        <_>
          <internalNodes>
            0 -1 660 -3.4209056757390499e-03</internalNodes>
          <leafValues>
            2.8156372904777527e-01 -1.2237014621496201e-01</leafValues></_>
        <_>
          <internalNodes>
            0 -1 148 -1.2829598039388657e-02</internalNodes>
          <leafValues>
            -5.2872049808502197e-01 7.3157496750354767e-02</leafValues></_>
        <_>
          <internalNodes>
            0 -1 332 2.1671831607818604e-02</internalNodes>
          <leafValues>
            -8.9804336428642273e-02 4.2656666040420532e-01</leafValues></_>
        <_>
          <internalNodes>
            0 -1 198 -3.1512983143329620e-02</internalNodes>
          <leafValues>
            -6.1175680160522461e-01 5.3839515894651413e-02</leafValues></_>
        <_>
          <internalNodes>
            0 -1 547 -2.9657881241291761e-03</internalNodes>
          <leafValues>
            3.4426110982894897e-01 -1.0041157901287079e-01</leafValues></_>
        <_>
          <internalNodes>
            0 -1 629 2.4406269192695618e-02</internalNodes>
          <leafValues>
            5.3154133260250092e-02 -6.0717463493347168e-01</leafValues></_>
        <_>
          <internalNodes>
            0 -1 792 -6.9040288217365742e-03</internalNodes>
          <leafValues>
            2.3919875919818878e-01 -1.2851691246032715e-01</leafValues></_>
        <_>
          <internalNodes>
            0 -1 843 6.3540311530232430e-03</internalNodes>
          <leafValues>
            -1.3466188311576843e-01 2.7808204293251038e-01</leafValues></_>
        <_>
          <internalNodes>
            0 -1 269 2.4346280843019485e-02</internalNodes>
          <leafValues>
            6.3096135854721069e-02 -5.6980413198471069e-01</leafValues></_>
        <_>
          <internalNodes>
            0 -1 351 4.8746613902039826e-04</internalNodes>
          <leafValues>
            -1.8640688061714172e-01 1.5640430152416229e-01</leafValues></_>
        <_>
          <internalNodes>
            0 -1 374 -1.7615731805562973e-02</internalNodes>
          <leafValues>
            -3.8526079058647156e-01 7.4027195572853088e-02</leafValues></_>
        <_>
          <internalNodes>
            0 -1 451 -1.5012172516435385e-03</internalNodes>
          <leafValues>
            2.1900109946727753e-01 -1.4139603078365326e-01</leafValues></_>
        <_>
          <internalNodes>
            0 -1 383 6.3768969848752022e-03</internalNodes>
          <leafValues>
            -1.2107197940349579e-01 2.9713365435600281e-01</leafValues></_>
        <_>
          <internalNodes>
            0 -1 9 1.2416712939739227e-02</internalNodes>
          <leafValues>
            -1.1102376133203506e-01 2.5980338454246521e-01</leafValues></_>
        <_>
          <internalNodes>
            0 -1 5 -2.2390503436326981e-02</internalNodes>
          <leafValues>
            3.1434762477874756e-01 -1.3006302714347839e-01</leafValues></_>
        <_>
          <internalNodes>
            0 -1 84 -1.2873973697423935e-02</internalNodes>
          <leafValues>
            -5.2784609794616699e-01 6.4158707857131958e-02</leafValues></_>
        <_>
          <internalNodes>
            0 -1 410 7.5702676549553871e-03</internalNodes>
          <leafValues>
            -8.6970739066600800e-02 3.8430348038673401e-01</leafValues></_></weakClassifiers></_>
    <!-- stage 2 -->
    <_>
      <maxWeakCount>49</maxWeakCount>
      <stageThreshold>-9.4446569681167603e-01</stageThreshold>
      <weakClassifiers>
        <_>
          <internalNodes>
            0 -1 292 -2.5849451776593924e-04</internalNodes>
          <leafValues>
            4.1498669981956482e-01 -3.8380429148674011e-02</leafValues></_>
        <_>
          <internalNodes>
            0 -1 193 5.7293003192171454e-04</internalNodes>
          <leafValues>
            -2.1921692788600922e-01 2.2519055008888245e-01</leafValues></_>
        <_>
          <internalNodes>
            0 -1 442 1.4941093511879444e-02</internalNodes>
          <leafValues>
            7.7683597803115845e-02 -4.9087554216384888e-01</leafValues></_>
        <_>
          <internalNodes>
            0 -1 612 -9.4158103456720710e-04</internalNodes>
          <leafValues>
            2.1502535045146942e-01 -1.9072750210762024e-01</leafValues></_>
        <_>
          <internalNodes>
            0 -1 526 3.8298647850751877e-02</internalNodes>
          <leafValues>
            -1.0964187979698181e-01 3.7723788619041443e-01</leafValues></_>
        <_>
          <internalNodes>
            0 -1 81 3.0583958141505718e-03</internalNodes>
          <leafValues>
            -1.9154149293899536e-01 2.4934911727905273e-01</leafValues></_>
        <_>
          <internalNodes>
            0 -1 673 5.5657466873526573e-03</internalNodes>
          <leafValues>
            5.9848256409168243e-02 -5.7161080837249756e-01</leafValues></_>
        <_>
          <internalNodes>
            0 -1 465 -6.6388701088726521e-03</internalNodes>
          <leafValues>
            2.3198191821575165e-01 -1.6413396596908569e-01</leafValues></_>
        <_>
          <internalNodes>
            0 -1 677 -3.0310818925499916e-02</internalNodes>
          <leafValues>
            -7.9694753885269165e-01 5.6029759347438812e-02</leafValues></_>
        <_>
          <internalNodes>
            0 -1 254 -1.9136220216751099e-02</internalNodes>
          <leafValues>
            3.0309709906578064e-01 -1.1674133688211441e-01</leafValues></_>
        <_>
          <internalNodes>
            0 -1 119 -3.2810367643833160e-02</internalNodes>
          <leafValues>
            -5.7957655191421509e-01 6.1620138585567474e-02</leafValues></_>
        <_>
          <internalNodes>
            0 -1 751 4.8203011974692345e-03</internalNodes>
          <leafValues>
            -1.3875021040439606e-01 2.5932309031486511e-01</leafValues></_>
        <_>
          <internalNodes>
            0 -1 184 3.5580977797508240e-02</internalNodes>
          <leafValues>
            5.3881645202636719e-02 -5.6216537952423096e-01</leafValues></_>
        <_>
          <internalNodes>
            0 -1 669 4.9099265597760677e-03</internalNodes>
          <leafValues>
            3.5710077732801437e-02 -8.0734205245971680e-01</leafValues></_>
        <_>
          <internalNodes>
            0 -1 674 -3.9294022135436535e-03</internalNodes>
          <leafValues>
            -5.0705778598785400e-01 4.8704642802476883e-02</leafValues></_>
        <_>
          <internalNodes>
            0 -1 716 1.7571842763572931e-03</internalNodes>
          <leafValues>
            -1.6560448706150055e-01 1.9083413481712341e-01</leafValues></_>
        <_>
          <internalNodes>
            0 -1 842 -7.0664018858224154e-04</internalNodes>
          <leafValues>
            1.9248026609420776e-01 -1.5653063356876373e-01</leafValues></_>
        <_>
          <internalNodes>
            0 -1 593 3.5202711820602417e-02</internalNodes>
          <leafValues>
            -8.4026880562305450e-02 3.7474539875984192e-01</leafValues></_>
        <_>
          <internalNodes>
            0 -1 278 3.6700677592307329e-03</internalNodes>
          <leafValues>
            5.7002533227205276e-02 -5.7614189386367798e-01</leafValues></_>
        <_>
          <internalNodes>
            0 -1 296 -2.2911676205694675e-03</internalNodes>
          <leafValues>
            2.1191900968551636e-01 -1.4833794534206390e-01</leafValues></_>
        <_>
          <internalNodes>
            0 -1 252 -2.0840710029006004e-02</internalNodes>
          <leafValues>
            -6.3136851787567139e-01 4.2791582643985748e-02</leafValues></_>
        <_>
          <internalNodes>
            0 -1 197 1.1700516566634178e-02</internalNodes>
          <leafValues>
            4.5858424156904221e-02 -5.7224833965301514e-01</leafValues></_>
        <_>
          <internalNodes>
            0 -1 21 -2.0446363836526871e-02</internalNodes>
          <leafValues>
            3.2020458579063416e-01 -9.0071961283683777e-02</leafValues></_>
        <_>
          <internalNodes>
            0 -1 21 1.7654551193118095e-02</internalNodes>
          <leafValues>
            -1.1105242371559143e-01 2.8670939803123474e-01</leafValues></_>
        <_>
          <internalNodes>
            0 -1 462 -6.2906718812882900e-03</internalNodes>
          <leafValues>
            2.7348643541336060e-01 -1.0532698780298233e-01</leafValues></_>
        <_>
          <internalNodes>
            0 -1 343 3.2677953131496906e-03</internalNodes>
          <leafValues>
            5.0291053950786591e-02 -6.3566404581069946e-01</leafValues></_>
        <_>
          <internalNodes>
            0 -1 214 -1.1694390326738358e-02</internalNodes>
          <leafValues>
            -7.3257929086685181e-01 2.8527922928333282e-02</leafValues></_>
        <_>
          <internalNodes>
            0 -1 338 -1.3176642358303070e-02</internalNodes>
          <leafValues>
            3.5956919193267822e-01 -7.4789896607398987e-02</leafValues></_>
        <_>
          <internalNodes>
            0 -1 829 -2.8456831350922585e-02</internalNodes>
          <leafValues>
            -7.2263020277023315e-01 3.8488890975713730e-02</leafValues></_>
        <_>
          <internalNodes>
            0 -1 533 -6.6623887978494167e-03</internalNodes>
          <leafValues>
            2.8671053051948547e-01 -9.4876967370510101e-02</leafValues></_>
        <_>
          <internalNodes>
            0 -1 550 -3.4306794404983521e-02</internalNodes>
          <leafValues>
            -7.4301302433013916e-01 4.0714602917432785e-02</leafValues></_>
        <_>
          <internalNodes>
            0 -1 264 3.6518968641757965e-02</internalNodes>
          <leafValues>
            -3.8127396255731583e-02 7.8973805904388428e-01</leafValues></_>
        <_>
          <internalNodes>
            0 -1 224 1.3777060434222221e-02</internalNodes>
          <leafValues>
            3.7357792258262634e-02 -8.0364000797271729e-01</leafValues></_>
        <_>
          <internalNodes>
            0 -1 641 -1.5603855717927217e-03</internalNodes>
          <leafValues>
            1.9115309417247772e-01 -1.2548263370990753e-01</leafValues></_>
        <_>
          <internalNodes>
            0 -1 17 -1.2370239011943340e-02</internalNodes>
          <leafValues>
            2.0167329907417297e-01 -1.1532399058341980e-01</leafValues></_>
        <_>
          <internalNodes>
            0 -1 541 3.3706373069435358e-03</internalNodes>
          <leafValues>
            -9.2768922448158264e-02 2.4225185811519623e-01</leafValues></_>
        <_>
          <internalNodes>
            0 -1 486 3.5404837690293789e-03</internalNodes>
          <leafValues>
            -1.0234290361404419e-01 2.3589479923248291e-01</leafValues></_>
        <_>
          <internalNodes>
            0 -1 111 -4.3712602928280830e-03</internalNodes>
          <leafValues>
            -5.5476111173629761e-01 4.5560643076896667e-02</leafValues></_>
        <_>
          <internalNodes>
            0 -1 828 5.1698717288672924e-04</internalNodes>
          <leafValues>
            -1.2175437808036804e-01 2.0232090353965759e-01</leafValues></_>
        <_>
          <internalNodes>
            0 -1 620 -3.7427407223731279e-03</internalNodes>
          <leafValues>
            -6.0117405652999878e-01 3.6068044602870941e-02</leafValues></_>
        <_>
          <internalNodes>
            0 -1 551 -5.6214749813079834e-02</internalNodes>
          <leafValues>
            -7.0573401451110840e-01 2.7832256630063057e-02</leafValues></_>
        <_>
          <internalNodes>
            0 -1 452 -7.8896479681134224e-04</internalNodes>
          <leafValues>
            1.7631338536739349e-01 -1.3450482487678528e-01</leafValues></_>
        <_>
          <internalNodes>
            0 -1 478 -8.3303470164537430e-03</internalNodes>
          <leafValues>
            2.3297898471355438e-01 -1.0515654087066650e-01</leafValues></_>
        <_>
          <internalNodes>
            0 -1 172 -4.9906331696547568e-05</internalNodes>
          <leafValues>
            1.3090290129184723e-01 -1.6958539187908173e-01</leafValues></_>
        <_>
          <internalNodes>
            0 -1 174 -2.8628186555579305e-04</internalNodes>
          <leafValues>
            -1.9709259271621704e-01 1.2160655111074448e-01</leafValues></_>
        <_>
          <internalNodes>
            0 -1 122 4.1279883589595556e-04</internalNodes>
          <leafValues>
            -1.3320973515510559e-01 1.9434210658073425e-01</leafValues></_>
        <_>
          <internalNodes>
            0 -1 86 -7.5230877846479416e-03</internalNodes>
          <leafValues>
            -2.5780832767486572e-01 8.8455662131309509e-02</leafValues></_>
        <_>
          <internalNodes>
            0 -1 687 -2.2924380376935005e-02</internalNodes>
          <leafValues>
            -7.3690444231033325e-01 2.9549989849328995e-02</leafValues></_>
        <_>
          <internalNodes>
            0 -1 684 1.1362613877281547e-03</internalNodes>
          <leafValues>
            -1.4329510927200317e-01 1.7627573013305664e-01</leafValues></_></weakClassifiers></_>
    <!-- stage 3 -->
    <_>
      <maxWeakCount>61</maxWeakCount>
      <stageThreshold>-9.4551151990890503e-01</stageThreshold>
      <weakClassifiers>
        <_>
          <internalNodes>
            0 -1 359 -1.3608983717858791e-03</internalNodes>
          <leafValues>
            5.0247526168823242e-01 5.5555555969476700e-02</leafValues></_>
        <_>
          <internalNodes>
            0 -1 443 -9.9695369135588408e-04</internalNodes>
          <leafValues>
            2.6879099011421204e-01 -1.2594084441661835e-01</leafValues></_>
        <_>
          <internalNodes>
            0 -1 630 1.3704860582947731e-02</internalNodes>
          <leafValues>
            6.2932074069976807e-02 -5.0087940692901611e-01</leafValues></_>
        <_>
          <internalNodes>
            0 -1 626 2.7542745228856802e-03</internalNodes>
          <leafValues>
            4.9512006342411041e-02 -5.7416224479675293e-01</leafValues></_>
        <_>
          <internalNodes>
            0 -1 686 -1.3946704566478729e-03</internalNodes>
          <leafValues>
            2.5086519122123718e-01 -1.4493262767791748e-01</leafValues></_>
        <_>
          <internalNodes>
            0 -1 268 5.3309733048081398e-03</internalNodes>
          <leafValues>
            1.2128450907766819e-02 -5.4799890518188477e-01</leafValues></_>
        <_>
          <internalNodes>
            0 -1 581 -1.0727655608206987e-03</internalNodes>
          <leafValues>
            2.5097435712814331e-01 -1.0365308076143265e-01</leafValues></_>
        <_>
          <internalNodes>
            0 -1 337 -1.5005918219685555e-02</internalNodes>
          <leafValues>
            2.4475209414958954e-01 -1.1780648678541183e-01</leafValues></_>
        <_>
          <internalNodes>
            0 -1 149 4.4278830289840698e-02</internalNodes>
          <leafValues>
            -8.6516886949539185e-02 3.7815991044044495e-01</leafValues></_>
        <_>
          <internalNodes>
            0 -1 348 5.3485417738556862e-03</internalNodes>
          <leafValues>
            7.5118139386177063e-02 -4.3534347414970398e-01</leafValues></_>
        <_>
          <internalNodes>
            0 -1 515 2.6451714802533388e-03</internalNodes>
          <leafValues>
            -1.1402710527181625e-01 2.2434997558593750e-01</leafValues></_>
        <_>
          <internalNodes>
            0 -1 209 -3.9725769311189651e-03</internalNodes>
          <leafValues>
            2.2568957507610321e-01 -1.1300837248563766e-01</leafValues></_>
        <_>
          <internalNodes>
            0 -1 127 1.3318277895450592e-02</internalNodes>
          <leafValues>
            -7.3278464376926422e-02 3.7795117497444153e-01</leafValues></_>
        <_>
          <internalNodes>
            0 -1 132 -1.6592498868703842e-02</internalNodes>
          <leafValues>
            -7.5675261020660400e-01 3.6627937108278275e-02</leafValues></_>
        <_>
          <internalNodes>
            0 -1 722 1.6603689873591065e-03</internalNodes>
          <leafValues>
            -1.4299713075160980e-01 1.7249870300292969e-01</leafValues></_>
        <_>
          <internalNodes>
            0 -1 294 -8.4794210270047188e-03</internalNodes>
          <leafValues>
            -6.2275665998458862e-01 3.2215226441621780e-02</leafValues></_>
        <_>
          <internalNodes>
            0 -1 627 -5.7962662540376186e-03</internalNodes>
          <leafValues>
            -4.5684790611267090e-01 5.0392590463161469e-02</leafValues></_>
        <_>
          <internalNodes>
            0 -1 177 6.5780542790889740e-03</internalNodes>
          <leafValues>
            5.8333095163106918e-02 -4.6634444594383240e-01</leafValues></_>
        <_>
          <internalNodes>
            0 -1 36 1.1203577741980553e-02</internalNodes>
          <leafValues>
            -1.1293061077594757e-01 2.4500717222690582e-01</leafValues></_>
        <_>
          <internalNodes>
            0 -1 33 -8.7455045431852341e-03</internalNodes>
          <leafValues>
            2.9791286587715149e-01 -9.9233813583850861e-02</leafValues></_>
        <_>
          <internalNodes>
            0 -1 788 5.0712255761027336e-03</internalNodes>
          <leafValues>
            3.4428466111421585e-02 -6.9574260711669922e-01</leafValues></_>
        <_>
          <internalNodes>
            0 -1 92 -3.5402782261371613e-02</internalNodes>
          <leafValues>
            -6.4622664451599121e-01 2.9905814677476883e-02</leafValues></_>
        <_>
          <internalNodes>
            0 -1 189 3.2654654933139682e-04</internalNodes>
          <leafValues>
            -1.4543788135051727e-01 1.5487705171108246e-01</leafValues></_>
        <_>
          <internalNodes>
            0 -1 850 3.5029058344662189e-03</internalNodes>
          <leafValues>
            -7.4951596558094025e-02 3.0141019821166992e-01</leafValues></_>
        <_>
          <internalNodes>
            0 -1 441 3.1674597412347794e-03</internalNodes>
          <leafValues>
            8.7189555168151855e-02 -3.0504032969474792e-01</leafValues></_>
        <_>
          <internalNodes>
            0 -1 854 -7.2032911702990532e-04</internalNodes>
          <leafValues>
            1.8528224527835846e-01 -1.1862879246473312e-01</leafValues></_>
        <_>
          <internalNodes>
            0 -1 668 -2.7994887903332710e-02</internalNodes>
          <leafValues>
            -6.0381549596786499e-01 4.0684241801500320e-02</leafValues></_>
        <_>
          <internalNodes>
            0 -1 404 -1.5623450744897127e-03</internalNodes>
          <leafValues>
            1.6479454934597015e-01 -1.3496670126914978e-01</leafValues></_>
        <_>
          <internalNodes>
            0 -1 411 -9.7307534888386726e-03</internalNodes>
          <leafValues>
            2.8405699133872986e-01 -8.2171648740768433e-02</leafValues></_>
        <_>
          <internalNodes>
            0 -1 425 1.2216888368129730e-02</internalNodes>
          <leafValues>
            -6.1037432402372360e-02 3.9848867058753967e-01</leafValues></_>
        <_>
          <internalNodes>
            0 -1 360 -7.8197786933742464e-05</internalNodes>
          <leafValues>
            -2.0142555236816406e-01 1.1684606224298477e-01</leafValues></_>
        <_>
          <internalNodes>
            0 -1 469 -6.3879095250740647e-04</internalNodes>
          <leafValues>
            1.9236372411251068e-01 -1.2695354223251343e-01</leafValues></_>
        <_>
          <internalNodes>
            0 -1 780 6.0545923188328743e-03</internalNodes>
          <leafValues>
            3.0936235561966896e-02 -8.0710464715957642e-01</leafValues></_>
        <_>
          <internalNodes>
            0 -1 849 -7.1389961522072554e-04</internalNodes>
          <leafValues>
            1.7739671468734741e-01 -1.2677118182182312e-01</leafValues></_>
        <_>
          <internalNodes>
            0 -1 6 1.2063429690897465e-02</internalNodes>
          <leafValues>
            -8.6963690817356110e-02 2.5509998202323914e-01</leafValues></_>
        <_>
          <internalNodes>
            0 -1 532 -6.9902064278721809e-03</internalNodes>
          <leafValues>
            3.1205824017524719e-01 -7.6325915753841400e-02</leafValues></_>
        <_>
          <internalNodes>
            0 -1 251 -1.6908545047044754e-02</internalNodes>
          <leafValues>
            -7.2689747810363770e-01 3.2238550484180450e-02</leafValues></_>
        <_>
          <internalNodes>
            0 -1 781 3.2599039841443300e-03</internalNodes>
          <leafValues>
            3.0846601352095604e-02 -5.9441918134689331e-01</leafValues></_>
        <_>
          <internalNodes>
            0 -1 724 1.1174738407135010e-02</internalNodes>
          <leafValues>
            3.5269830375909805e-02 -5.7659232616424561e-01</leafValues></_>
        <_>
          <internalNodes>
            0 -1 888 -5.1099748816341162e-04</internalNodes>
          <leafValues>
            1.5298894047737122e-01 -1.3588434457778931e-01</leafValues></_>
        <_>
          <internalNodes>
            0 -1 714 1.5690794680267572e-03</internalNodes>
          <leafValues>
            -1.0778643190860748e-01 1.9155621528625488e-01</leafValues></_>
        <_>
          <internalNodes>
            0 -1 274 8.2119489088654518e-03</internalNodes>
          <leafValues>
            -7.0271097123622894e-02 2.9399979114532471e-01</leafValues></_>
        <_>
          <internalNodes>
            0 -1 423 -2.0217448472976685e-03</internalNodes>
          <leafValues>
            2.2074119746685028e-01 -1.0529762506484985e-01</leafValues></_>
        <_>
          <internalNodes>
            0 -1 300 2.7554523199796677e-02</internalNodes>
          <leafValues>
            5.0722267478704453e-02 -4.5770725607872009e-01</leafValues></_>
        <_>
          <internalNodes>
            0 -1 181 -6.5883039496839046e-04</internalNodes>
          <leafValues>
            1.3822625577449799e-01 -1.5616402029991150e-01</leafValues></_>
        <_>
          <internalNodes>
            0 -1 94 -1.1101996526122093e-02</internalNodes>
          <leafValues>
            -3.1749427318572998e-01 7.1316443383693695e-02</leafValues></_>
        <_>
          <internalNodes>
            0 -1 758 2.7731247246265411e-03</internalNodes>
          <leafValues>
            -1.1863027513027191e-01 1.8207243084907532e-01</leafValues></_>
        <_>
          <internalNodes>
            0 -1 775 8.0466549843549728e-03</internalNodes>
          <leafValues>
            6.2429565936326981e-02 -3.8433918356895447e-01</leafValues></_>
        <_>
          <internalNodes>
            0 -1 741 -8.9259119704365730e-04</internalNodes>
          <leafValues>
            2.0288898050785065e-01 -1.0393534600734711e-01</leafValues></_>
        <_>
          <internalNodes>
            0 -1 433 -4.6336529776453972e-03</internalNodes>
          <leafValues>
            -4.7694063186645508e-01 4.4844742864370346e-02</leafValues></_>
        <_>
          <internalNodes>
            0 -1 345 -7.7286892337724566e-04</internalNodes>
          <leafValues>
            1.4001138508319855e-01 -1.6949041187763214e-01</leafValues></_>
        <_>
          <internalNodes>
            0 -1 401 -1.3863427564501762e-02</internalNodes>
          <leafValues>
            -6.9792777299880981e-01 2.7801817283034325e-02</leafValues></_>
        <_>
          <internalNodes>
            0 -1 670 3.4106455277651548e-03</internalNodes>
          <leafValues>
            2.8790768235921860e-02 -6.2635332345962524e-01</leafValues></_>
        <_>
          <internalNodes>
            0 -1 79 3.1959888292476535e-04</internalNodes>
          <leafValues>
            -1.2844714522361755e-01 1.4614190161228180e-01</leafValues></_>
        <_>
          <internalNodes>
            0 -1 88 4.1871410794556141e-03</internalNodes>
          <leafValues>
            6.6071689128875732e-02 -3.1218165159225464e-01</leafValues></_>
        <_>
          <internalNodes>
            0 -1 372 -7.9127866774797440e-03</internalNodes>
          <leafValues>
            4.8525857925415039e-01 -3.9868321269750595e-02</leafValues></_>
        <_>
          <internalNodes>
            0 -1 272 -3.4462310373783112e-02</internalNodes>
          <leafValues>
            -5.6473410129547119e-01 4.3789524585008621e-02</leafValues></_>
        <_>
          <internalNodes>
            0 -1 438 -4.0131895802915096e-03</internalNodes>
          <leafValues>
            3.2574814558029175e-01 -6.5002679824829102e-02</leafValues></_>
        <_>
          <internalNodes>
            0 -1 270 -3.5186575260013342e-03</internalNodes>
          <leafValues>
            2.4427942931652069e-01 -8.6935922503471375e-02</leafValues></_>
        <_>
          <internalNodes>
            0 -1 57 -1.1941098608076572e-02</internalNodes>
          <leafValues>
            -6.1042332649230957e-01 4.0339577943086624e-02</leafValues></_>
        <_>
          <internalNodes>
            0 -1 705 4.8171547241508961e-03</internalNodes>
          <leafValues>
            2.4819284677505493e-02 -6.7603909969329834e-01</leafValues></_></weakClassifiers></_>
    <!-- stage 4 -->
    <_>
      <maxWeakCount>69</maxWeakCount>
      <stageThreshold>-9.3354219198226929e-01</stageThreshold>
      <weakClassifiers>
        <_>
          <internalNodes>
            0 -1 354 5.9833675622940063e-03</internalNodes>
          <leafValues>
            7.9218663275241852e-02 5.3881275653839111e-01</leafValues></_>
        <_>
          <internalNodes>
            0 -1 793 -1.7827244009822607e-03</internalNodes>
          <leafValues>
            2.2962228953838348e-01 -1.3490788638591766e-01</leafValues></_>
        <_>
          <internalNodes>
            0 -1 218 7.2194484528154135e-04</internalNodes>
          <leafValues>
            9.9427483975887299e-02 -3.2483392953872681e-01</leafValues></_>
        <_>
          <internalNodes>
            0 -1 675 -5.2064345218241215e-03</internalNodes>
          <leafValues>
            -6.3335263729095459e-01 -1.1512452038004994e-03</leafValues></_>
        <_>
          <internalNodes>
            0 -1 323 1.2833433225750923e-02</internalNodes>
          <leafValues>
            -9.5471300184726715e-02 2.6260554790496826e-01</leafValues></_>
        <_>
          <internalNodes>
            0 -1 358 -4.6720722457394004e-04</internalNodes>
          <leafValues>
            -2.6273632049560547e-01 9.1209143400192261e-02</leafValues></_>
        <_>
          <internalNodes>
            0 -1 278 -1.4027385623194277e-04</internalNodes>
          <leafValues>
            -2.1252913773059845e-01 1.7449650168418884e-01</leafValues></_>
        <_>
          <internalNodes>
            0 -1 423 3.2333263661712408e-03</internalNodes>
          <leafValues>
            -1.0838324576616287e-01 2.8710335493087769e-01</leafValues></_>
        <_>
          <internalNodes>
            0 -1 398 -6.3248276710510254e-03</internalNodes>
          <leafValues>
            2.3994532227516174e-01 -1.0819341987371445e-01</leafValues></_>
        <_>
          <internalNodes>
            0 -1 178 -7.7614574693143368e-03</internalNodes>
          <leafValues>
            -4.2984053492546082e-01 7.2717189788818359e-02</leafValues></_>
        <_>
          <internalNodes>
            0 -1 223 1.5089225955307484e-02</internalNodes>
          <leafValues>
            -8.3246320486068726e-02 3.4729033708572388e-01</leafValues></_>
        <_>
          <internalNodes>
            0 -1 425 -5.3044529631733894e-03</internalNodes>
          <leafValues>
            2.7717140316963196e-01 -8.4686242043972015e-02</leafValues></_>
        <_>
          <internalNodes>
            0 -1 603 1.3686749152839184e-03</internalNodes>
          <leafValues>
            -1.3673327863216400e-01 2.1892425417900085e-01</leafValues></_>
        <_>
          <internalNodes>
            0 -1 653 -1.2307818979024887e-02</internalNodes>
          <leafValues>
            2.0827327668666840e-01 -9.6251308917999268e-02</leafValues></_>
        <_>
          <internalNodes>
            0 -1 28 -1.1986980214715004e-02</internalNodes>
          <leafValues>
            2.8188914060592651e-01 -8.2993194460868835e-02</leafValues></_>
        <_>
          <internalNodes>
            0 -1 59 -1.4813997549936175e-03</internalNodes>
          <leafValues>
            2.2409938275814056e-01 -1.0651467740535736e-01</leafValues></_>
        <_>
          <internalNodes>
            0 -1 118 5.0991602241992950e-02</internalNodes>
          <leafValues>
            3.7042118608951569e-02 -7.1385699510574341e-01</leafValues></_>
        <_>
          <internalNodes>
            0 -1 129 1.1387800797820091e-02</internalNodes>
          <leafValues>
            2.2800156846642494e-02 -7.7301591634750366e-01</leafValues></_>
        <_>
          <internalNodes>
            0 -1 66 3.9019077084958553e-03</internalNodes>
          <leafValues>
            -1.2054866552352905e-01 1.9670908153057098e-01</leafValues></_>
        <_>
          <internalNodes>
            0 -1 190 3.7929466925561428e-03</internalNodes>
          <leafValues>
            2.7228830382227898e-02 -6.8897294998168945e-01</leafValues></_>
        <_>
          <internalNodes>
            0 -1 676 -2.1157786250114441e-02</internalNodes>
          <leafValues>
            -6.5873759984970093e-01 3.1067566946148872e-02</leafValues></_>
        <_>
          <internalNodes>
            0 -1 839 -1.2571320403367281e-03</internalNodes>
          <leafValues>
            1.9875057041645050e-01 -1.0281433910131454e-01</leafValues></_>
        <_>
          <internalNodes>
            0 -1 791 5.6877234019339085e-03</internalNodes>
          <leafValues>
            3.5587292164564133e-02 -5.9440749883651733e-01</leafValues></_>
        <_>
          <internalNodes>
            0 -1 98 6.1388162430375814e-04</internalNodes>
          <leafValues>
            -1.3004261255264282e-01 1.6385060548782349e-01</leafValues></_>
        <_>
          <internalNodes>
            0 -1 227 -1.9832421094179153e-02</internalNodes>
          <leafValues>
            -6.7191225290298462e-01 2.9035413637757301e-02</leafValues></_>
        <_>
          <internalNodes>
            0 -1 630 1.7765507102012634e-02</internalNodes>
          <leafValues>
            3.0714405700564384e-02 -5.5713462829589844e-01</leafValues></_>
        <_>
          <internalNodes>
            0 -1 620 4.6943370252847672e-03</internalNodes>
          <leafValues>
            2.6455758139491081e-02 -6.6408693790435791e-01</leafValues></_>
        <_>
          <internalNodes>
            0 -1 70 -2.3435603827238083e-02</internalNodes>
          <leafValues>
            3.1081870198249817e-01 -6.5237462520599365e-02</leafValues></_>
        <_>
          <internalNodes>
            0 -1 497 -5.2698515355587006e-02</internalNodes>
          <leafValues>
            -7.7947181463241577e-01 2.7384795248508453e-02</leafValues></_>
        <_>
          <internalNodes>
            0 -1 341 -1.3349968940019608e-03</internalNodes>
          <leafValues>
            -2.8173664212226868e-01 6.6237203776836395e-02</leafValues></_>
        <_>
          <internalNodes>
            0 -1 266 -1.9830925157293677e-04</internalNodes>
          <leafValues>
            -1.9000348448753357e-01 1.3162441551685333e-01</leafValues></_>
        <_>
          <internalNodes>
            0 -1 418 -6.8490556441247463e-03</internalNodes>
          <leafValues>
            2.8263229131698608e-01 -7.7146761119365692e-02</leafValues></_>
        <_>
          <internalNodes>
            0 -1 801 -1.8908125348389149e-03</internalNodes>
          <leafValues>
            2.1253921091556549e-01 -9.2421770095825195e-02</leafValues></_>
        <_>
          <internalNodes>
            0 -1 849 -1.4545558951795101e-03</internalNodes>
          <leafValues>
            2.0852555334568024e-01 -9.8392434418201447e-02</leafValues></_>
        <_>
          <internalNodes>
            0 -1 853 -9.8671612795442343e-04</internalNodes>
          <leafValues>
            2.4300850927829742e-01 -8.2118622958660126e-02</leafValues></_>
        <_>
          <internalNodes>
            0 -1 99 1.8515421543270350e-03</internalNodes>
          <leafValues>
            6.1357278376817703e-02 -3.1740653514862061e-01</leafValues></_>
        <_>
          <internalNodes>
            0 -1 489 -1.4031622558832169e-03</internalNodes>
          <leafValues>
            1.5566132962703705e-01 -1.2685404717922211e-01</leafValues></_>
        <_>
          <internalNodes>
            0 -1 167 2.2002499550580978e-02</internalNodes>
          <leafValues>
            3.0894698575139046e-02 -5.3512573242187500e-01</leafValues></_>
        <_>
          <internalNodes>
            0 -1 101 6.0194893740117550e-03</internalNodes>
          <leafValues>
            -7.5655736029148102e-02 2.7426454424858093e-01</leafValues></_>
        <_>
          <internalNodes>
            0 -1 456 -6.8843839690089226e-03</internalNodes>
          <leafValues>
            2.8450369834899902e-01 -6.8269647657871246e-02</leafValues></_>
        <_>
          <internalNodes>
            0 -1 379 4.0404489263892174e-03</internalNodes>
          <leafValues>
            3.3423129469156265e-02 -7.2727441787719727e-01</leafValues></_>
        <_>
          <internalNodes>
            0 -1 384 8.1749744713306427e-03</internalNodes>
          <leafValues>
            -1.0021013766527176e-01 2.0494477450847626e-01</leafValues></_>
        <_>
          <internalNodes>
            0 -1 513 6.3070189207792282e-03</internalNodes>
          <leafValues>
            4.0618032217025757e-02 -4.9688184261322021e-01</leafValues></_>
        <_>
          <internalNodes>
            0 -1 881 -2.1272976882755756e-03</internalNodes>
          <leafValues>
            1.6937106847763062e-01 -1.0704596340656281e-01</leafValues></_>
        <_>
          <internalNodes>
            0 -1 841 9.1208480298519135e-03</internalNodes>
          <leafValues>
            2.5910072028636932e-02 -7.4756217002868652e-01</leafValues></_>
        <_>
          <internalNodes>
            0 -1 804 6.4865397289395332e-03</internalNodes>
          <leafValues>
            2.1843727678060532e-02 -6.6947460174560547e-01</leafValues></_>
        <_>
          <internalNodes>
            0 -1 477 -8.7401000782847404e-03</internalNodes>
          <leafValues>
            2.4031202495098114e-01 -7.5805127620697021e-02</leafValues></_>
        <_>
          <internalNodes>
            0 -1 412 2.6143735274672508e-02</internalNodes>
          <leafValues>
            -5.6327208876609802e-02 3.3776909112930298e-01</leafValues></_>
        <_>
          <internalNodes>
            0 -1 590 -3.9974879473447800e-03</internalNodes>
          <leafValues>
            -6.4238399267196655e-01 2.9177423566579819e-02</leafValues></_>
        <_>
          <internalNodes>
            0 -1 582 -8.0444430932402611e-04</internalNodes>
          <leafValues>
            1.6688540577888489e-01 -1.1145827919244766e-01</leafValues></_>
        <_>
          <internalNodes>
            0 -1 77 -8.7445406243205070e-03</internalNodes>
          <leafValues>
            2.9582765698432922e-01 -5.7970840483903885e-02</leafValues></_>
        <_>
          <internalNodes>
            0 -1 80 9.2495139688253403e-04</internalNodes>
          <leafValues>
            -1.0714892297983170e-01 1.7678777873516083e-01</leafValues></_>
        <_>
          <internalNodes>
            0 -1 155 -8.5200183093547821e-03</internalNodes>
          <leafValues>
            -4.0274015069007874e-01 4.5700434595346451e-02</leafValues></_>
        <_>
          <internalNodes>
            0 -1 273 1.2784551829099655e-02</internalNodes>
          <leafValues>
            4.7070547938346863e-02 -3.8306349515914917e-01</leafValues></_>
        <_>
          <internalNodes>
            0 -1 595 8.1706838682293892e-03</internalNodes>
          <leafValues>
            -8.0275349318981171e-02 2.3685613274574280e-01</leafValues></_>
        <_>
          <internalNodes>
            0 -1 527 1.0589887201786041e-01</internalNodes>
          <leafValues>
            2.8676183894276619e-02 -7.5405824184417725e-01</leafValues></_>
        <_>
          <internalNodes>
            0 -1 659 -4.5440588146448135e-03</internalNodes>
          <leafValues>
            -4.3058604001998901e-01 3.6316808313131332e-02</leafValues></_>
        <_>
          <internalNodes>
            0 -1 558 -3.5289693623781204e-03</internalNodes>
          <leafValues>
            2.5843870639801025e-01 -7.0690535008907318e-02</leafValues></_>
        <_>
          <internalNodes>
            0 -1 89 -2.1173560991883278e-02</internalNodes>
          <leafValues>
            -4.1005256772041321e-01 4.6325668692588806e-02</leafValues></_>
        <_>
          <internalNodes>
            0 -1 680 2.4235256016254425e-02</internalNodes>
          <leafValues>
            3.6099195480346680e-02 -4.6970447897911072e-01</leafValues></_>
        <_>
          <internalNodes>
            0 -1 869 8.2963174208998680e-03</internalNodes>
          <leafValues>
            -8.0692470073699951e-02 2.2356335818767548e-01</leafValues></_>
        <_>
          <internalNodes>
            0 -1 205 5.2050910890102386e-03</internalNodes>
          <leafValues>
            2.9303643852472305e-02 -6.3722139596939087e-01</leafValues></_>
        <_>
          <internalNodes>
            0 -1 417 3.4411740489304066e-03</internalNodes>
          <leafValues>
            -8.3531469106674194e-02 2.4477706849575043e-01</leafValues></_>
        <_>
          <internalNodes>
            0 -1 267 3.2875029137358069e-04</internalNodes>
          <leafValues>
            -1.1626762151718140e-01 1.6895319521427155e-01</leafValues></_>
        <_>
          <internalNodes>
            0 -1 358 -8.4496289491653442e-04</internalNodes>
          <leafValues>
            -2.5800162553787231e-01 6.6344611346721649e-02</leafValues></_>
        <_>
          <internalNodes>
            0 -1 175 1.8797925440594554e-04</internalNodes>
          <leafValues>
            -1.3554911315441132e-01 1.3612084090709686e-01</leafValues></_>
        <_>
          <internalNodes>
            0 -1 194 -7.6302704401314259e-03</internalNodes>
          <leafValues>
            5.1313817501068115e-01 -3.7731006741523743e-02</leafValues></_>
        <_>
          <internalNodes>
            0 -1 431 -3.3272444270551205e-03</internalNodes>
          <leafValues>
            2.8186550736427307e-01 -7.2373807430267334e-02</leafValues></_>
        <_>
          <internalNodes>
            0 -1 45 -6.7390138283371925e-03</internalNodes>
          <leafValues>
            2.3166170716285706e-01 -8.7632611393928528e-02</leafValues></_></weakClassifiers></_>
    <!-- stage 5 -->
    <_>
      <maxWeakCount>83</maxWeakCount>
      <stageThreshold>-9.2304217815399170e-01</stageThreshold>
      <weakClassifiers>
        <_>
          <internalNodes>
            0 -1 292 -1.5148747479543090e-04</internalNodes>
          <leafValues>
            3.6932599544525146e-01 -3.5372849553823471e-02</leafValues></_>
        <_>
          <internalNodes>
            0 -1 130 -5.5939881131052971e-03</internalNodes>
          <leafValues>
            3.2692033052444458e-01 -7.9945266246795654e-02</leafValues></_>
        <_>
          <internalNodes>
            0 -1 219 1.0753766400739551e-04</internalNodes>
          <leafValues>
            1.1421732604503632e-01 -2.1841946244239807e-01</leafValues></_>
        <_>
          <internalNodes>
            0 -1 124 2.7005025185644627e-03</internalNodes>
          <leafValues>
            -8.2656666636466980e-02 2.6430714130401611e-01</leafValues></_>
        <_>
          <internalNodes>
            0 -1 287 -1.0768724605441093e-02</internalNodes>
          <leafValues>
            -3.9700919389724731e-01 3.5718664526939392e-02</leafValues></_>
        <_>
          <internalNodes>
            0 -1 104 5.4517639800906181e-03</internalNodes>
          <leafValues>
            7.1738064289093018e-02 -3.7895622849464417e-01</leafValues></_>
        <_>
          <internalNodes>
            0 -1 63 -6.1588403768837452e-03</internalNodes>
          <leafValues>
            2.4438467621803284e-01 -9.8117269575595856e-02</leafValues></_>
        <_>
          <internalNodes>
            0 -1 447 1.9759543240070343e-02</internalNodes>
          <leafValues>
            6.5339006483554840e-02 -5.4833656549453735e-01</leafValues></_>
        <_>
          <internalNodes>
            0 -1 875 -1.6286565223708749e-03</internalNodes>
          <leafValues>
            2.0977765321731567e-01 -1.0982930660247803e-01</leafValues></_>
        <_>
          <internalNodes>
            0 -1 220 4.0403273887932301e-03</internalNodes>
          <leafValues>
            2.8400519862771034e-02 -5.4836183786392212e-01</leafValues></_>
        <_>
          <internalNodes>
            0 -1 671 -3.8459305651485920e-03</internalNodes>
          <leafValues>
            -5.2001410722732544e-01 4.4356286525726318e-02</leafValues></_>
        <_>
          <internalNodes>
            0 -1 545 1.1895431671291590e-03</internalNodes>
          <leafValues>
            -9.4162903726100922e-02 2.7164182066917419e-01</leafValues></_>
        <_>
          <internalNodes>
            0 -1 509 3.8743119686841965e-02</internalNodes>
          <leafValues>
            -9.4094492495059967e-02 2.7633547782897949e-01</leafValues></_>
        <_>
          <internalNodes>
            0 -1 645 -7.4188073631376028e-04</internalNodes>
          <leafValues>
            2.7738314867019653e-01 -9.4204746186733246e-02</leafValues></_>
        <_>
          <internalNodes>
            0 -1 409 3.4872628748416901e-02</internalNodes>
          <leafValues>
            -6.7148573696613312e-02 3.2854467630386353e-01</leafValues></_>
        <_>
          <internalNodes>
            0 -1 768 1.6104679554700851e-02</internalNodes>
          <leafValues>
            -6.9823883473873138e-02 3.7613487243652344e-01</leafValues></_>
        <_>
          <internalNodes>
            0 -1 189 4.3008569628000259e-03</internalNodes>
          <leafValues>
            3.9233893156051636e-02 -5.9328597784042358e-01</leafValues></_>
        <_>
          <internalNodes>
            0 -1 609 -1.0054858401417732e-02</internalNodes>
          <leafValues>
            -5.2688509225845337e-01 3.6921989172697067e-02</leafValues></_>
        <_>
          <internalNodes>
            0 -1 154 1.3208835152909160e-03</internalNodes>
          <leafValues>
            -1.1442229151725769e-01 1.7867814004421234e-01</leafValues></_>
        <_>
          <internalNodes>
            0 -1 650 -3.6619384773075581e-03</internalNodes>
          <leafValues>
            1.9419988989830017e-01 -1.0544443875551224e-01</leafValues></_>
        <_>
          <internalNodes>
            0 -1 150 -6.1516255140304565e-02</internalNodes>
          <leafValues>
            3.6114847660064697e-01 -6.5108999609947205e-02</leafValues></_>
        <_>
          <internalNodes>
            0 -1 46 -2.6124466676265001e-03</internalNodes>
          <leafValues>
            2.5369516015052795e-01 -7.8411482274532318e-02</leafValues></_>
        <_>
          <internalNodes>
            0 -1 566 -4.9492209218442440e-03</internalNodes>
          <leafValues>
            1.4882609248161316e-01 -1.4470954239368439e-01</leafValues></_>
        <_>
          <internalNodes>
            0 -1 778 -3.2593570649623871e-02</internalNodes>
          <leafValues>
            -6.9285488128662109e-01 2.5052748620510101e-02</leafValues></_>
        <_>
          <internalNodes>
            0 -1 529 -6.0859136283397675e-03</internalNodes>
          <leafValues>
            -4.1840159893035889e-01 4.3987691402435303e-02</leafValues></_>
        <_>
          <internalNodes>
            0 -1 598 -4.0155500173568726e-03</internalNodes>
          <leafValues>
            1.8934978544712067e-01 -1.0020498931407928e-01</leafValues></_>
        <_>
          <internalNodes>
            0 -1 663 5.6469724513590336e-03</internalNodes>
          <leafValues>
            -9.0898349881172180e-02 2.4488583207130432e-01</leafValues></_>
        <_>
          <internalNodes>
            0 -1 508 -1.0509910061955452e-02</internalNodes>
          <leafValues>
            -5.6810545921325684e-01 3.1118115410208702e-02</leafValues></_>
        <_>
          <internalNodes>
            0 -1 153 -2.5518666952848434e-03</internalNodes>
          <leafValues>
            -2.7207678556442261e-01 7.5090870261192322e-02</leafValues></_>
        <_>
          <internalNodes>
            0 -1 638 -1.5987057704478502e-03</internalNodes>
          <leafValues>
            1.5075448155403137e-01 -1.3173195719718933e-01</leafValues></_>
        <_>
          <internalNodes>
            0 -1 684 1.8815791700035334e-03</internalNodes>
          <leafValues>
            -1.1332903057336807e-01 1.8252904713153839e-01</leafValues></_>
        <_>
          <internalNodes>
            0 -1 610 1.7695076763629913e-02</internalNodes>
          <leafValues>
            3.9627011865377426e-02 -5.2654379606246948e-01</leafValues></_>
        <_>
          <internalNodes>
            0 -1 708 7.4703979771584272e-04</internalNodes>
          <leafValues>
            -1.0140272229909897e-01 1.8752010166645050e-01</leafValues></_>
        <_>
          <internalNodes>
            0 -1 448 -4.1822515428066254e-02</internalNodes>
          <leafValues>
            2.8255933523178101e-01 -6.6282451152801514e-02</leafValues></_>
        <_>
          <internalNodes>
            0 -1 745 3.0625069513916969e-02</internalNodes>
          <leafValues>
            -8.1849865615367889e-02 2.3882319033145905e-01</leafValues></_>
        <_>
          <internalNodes>
            0 -1 810 1.1229442898184061e-03</internalNodes>
          <leafValues>
            -7.3291584849357605e-02 2.5100836157798767e-01</leafValues></_>
        <_>
          <internalNodes>
            0 -1 834 -1.8384845927357674e-02</internalNodes>
          <leafValues>
            2.2029903531074524e-01 -8.4429793059825897e-02</leafValues></_>
        <_>
          <internalNodes>
            0 -1 894 1.3965293765068054e-03</internalNodes>
          <leafValues>
            -1.0156151652336121e-01 1.9840718805789948e-01</leafValues></_>
        <_>
          <internalNodes>
            0 -1 214 1.0221436619758606e-02</internalNodes>
          <leafValues>
            3.7861928343772888e-02 -5.2156841754913330e-01</leafValues></_>
        <_>
          <internalNodes>
            0 -1 106 -6.0356862843036652e-02</internalNodes>
          <leafValues>
            -5.8978837728500366e-01 2.9878841713070869e-02</leafValues></_>
        <_>
          <internalNodes>
            0 -1 531 -6.5863090567290783e-03</internalNodes>
          <leafValues>
            2.2799924015998840e-01 -8.6157605051994324e-02</leafValues></_>
        <_>
          <internalNodes>
            0 -1 210 -1.1577571742236614e-02</internalNodes>
          <leafValues>
            -6.6367322206497192e-01 3.1417984515428543e-02</leafValues></_>
        <_>
          <internalNodes>
            0 -1 463 2.1496023982763290e-02</internalNodes>
          <leafValues>
            -1.0206241160631180e-01 1.9297781586647034e-01</leafValues></_>
        <_>
          <internalNodes>
            0 -1 732 2.2554905153810978e-03</internalNodes>
          <leafValues>
            -1.0288293659687042e-01 1.8731012940406799e-01</leafValues></_>
        <_>
          <internalNodes>
            0 -1 772 3.3222400816157460e-04</internalNodes>
          <leafValues>
            -1.4514517784118652e-01 1.4610795676708221e-01</leafValues></_>
        <_>
          <internalNodes>
            0 -1 720 7.4597317725419998e-03</internalNodes>
          <leafValues>
            2.8688924387097359e-02 -7.8019577264785767e-01</leafValues></_>
        <_>
          <internalNodes>
            0 -1 811 -5.3661124547943473e-04</internalNodes>
          <leafValues>
            1.4223848283290863e-01 -1.2786692380905151e-01</leafValues></_>
        <_>
          <internalNodes>
            0 -1 830 4.5712613500654697e-03</internalNodes>
          <leafValues>
            3.6734472960233688e-02 -5.4558587074279785e-01</leafValues></_>
        <_>
          <internalNodes>
            0 -1 332 4.1207842528820038e-02</internalNodes>
          <leafValues>
            -3.1586140394210815e-02 6.1461883783340454e-01</leafValues></_>
        <_>
          <internalNodes>
            0 -1 406 9.6396878361701965e-03</internalNodes>
          <leafValues>
            5.2495621144771576e-02 -3.4370955824851990e-01</leafValues></_>
        <_>
          <internalNodes>
            0 -1 572 -1.1719230562448502e-02</internalNodes>
          <leafValues>
            -5.1495707035064697e-01 3.2037265598773956e-02</leafValues></_>
        <_>
          <internalNodes>
            0 -1 631 6.1422027647495270e-03</internalNodes>
          <leafValues>
            3.5029649734497070e-02 -4.5068219304084778e-01</leafValues></_>
        <_>
          <internalNodes>
            0 -1 370 1.2800078839063644e-03</internalNodes>
          <leafValues>
            -7.2467528283596039e-02 2.3467476665973663e-01</leafValues></_>
        <_>
          <internalNodes>
            0 -1 211 2.2836285643279552e-03</internalNodes>
          <leafValues>
            -1.0466322302818298e-01 1.9308598339557648e-01</leafValues></_>
        <_>
          <internalNodes>
            0 -1 460 -1.0500429198145866e-02</internalNodes>
          <leafValues>
            -5.5014300346374512e-01 3.1581833958625793e-02</leafValues></_>
        <_>
          <internalNodes>
            0 -1 436 -7.5814072042703629e-03</internalNodes>
          <leafValues>
            -3.1672689318656921e-01 5.3595699369907379e-02</leafValues></_>
        <_>
          <internalNodes>
            0 -1 743 1.3454125728458166e-03</internalNodes>
          <leafValues>
            -7.5098559260368347e-02 2.3697227239608765e-01</leafValues></_>
        <_>
          <internalNodes>
            0 -1 50 2.8236566577106714e-03</internalNodes>
          <leafValues>
            -8.0015391111373901e-02 2.1025003492832184e-01</leafValues></_>
        <_>
          <internalNodes>
            0 -1 0 -4.2367175221443176e-02</internalNodes>
          <leafValues>
            2.7741113305091858e-01 -7.1425534784793854e-02</leafValues></_>
        <_>
          <internalNodes>
            0 -1 896 -1.0040905326604843e-02</internalNodes>
          <leafValues>
            3.0758777260780334e-01 -5.2604574710130692e-02</leafValues></_>
        <_>
          <internalNodes>
            0 -1 720 -2.3121705744415522e-03</internalNodes>
          <leafValues>
            -3.6067181825637817e-01 4.9021583050489426e-02</leafValues></_>
        <_>
          <internalNodes>
            0 -1 798 -8.8082719594240189e-04</internalNodes>
          <leafValues>
            1.6804133355617523e-01 -1.0847742855548859e-01</leafValues></_>
        <_>
          <internalNodes>
            0 -1 688 -1.5532551333308220e-02</internalNodes>
          <leafValues>
            -4.0702134370803833e-01 4.2548567056655884e-02</leafValues></_>
        <_>
          <internalNodes>
            0 -1 99 3.4530069679021835e-03</internalNodes>
          <leafValues>
            3.2392852008342743e-02 -4.5646932721138000e-01</leafValues></_>
        <_>
          <internalNodes>
            0 -1 108 3.6782026290893555e-03</internalNodes>
          <leafValues>
            3.4304339438676834e-02 -4.4119897484779358e-01</leafValues></_>
        <_>
          <internalNodes>
            0 -1 11 7.9743973910808563e-03</internalNodes>
          <leafValues>
            -6.4914815127849579e-02 2.6652818918228149e-01</leafValues></_>
        <_>
          <internalNodes>
            0 -1 802 1.0698670521378517e-03</internalNodes>
          <leafValues>
            -9.5475517213344574e-02 1.8828608095645905e-01</leafValues></_>
        <_>
          <internalNodes>
            0 -1 266 2.7503562159836292e-03</internalNodes>
          <leafValues>
            5.1267705857753754e-02 -3.4603306651115417e-01</leafValues></_>
        <_>
          <internalNodes>
            0 -1 334 -1.3550168834626675e-02</internalNodes>
          <leafValues>
            2.3791502416133881e-01 -7.6242126524448395e-02</leafValues></_>
        <_>
          <internalNodes>
            0 -1 822 -2.4254204705357552e-02</internalNodes>
          <leafValues>
            -3.6314254999160767e-01 4.6759612858295441e-02</leafValues></_>
        <_>
          <internalNodes>
            0 -1 76 -3.4644731786102057e-03</internalNodes>
          <leafValues>
            1.6981717944145203e-01 -9.9418461322784424e-02</leafValues></_>
        <_>
          <internalNodes>
            0 -1 420 1.8442165106534958e-02</internalNodes>
          <leafValues>
            -2.5134734809398651e-02 6.1270666122436523e-01</leafValues></_>
        <_>
          <internalNodes>
            0 -1 314 1.9840431213378906e-01</internalNodes>
          <leafValues>
            2.5266125798225403e-02 -7.7218526601791382e-01</leafValues></_>
        <_>
          <internalNodes>
            0 -1 873 -4.5408227015286684e-04</internalNodes>
          <leafValues>
            1.4615121483802795e-01 -1.1273436248302460e-01</leafValues></_>
        <_>
          <internalNodes>
            0 -1 65 -9.6746701747179031e-03</internalNodes>
          <leafValues>
            -3.0401557683944702e-01 5.2111580967903137e-02</leafValues></_>
        <_>
          <internalNodes>
            0 -1 95 -2.7468014508485794e-02</internalNodes>
          <leafValues>
            -5.8995568752288818e-01 2.7511356398463249e-02</leafValues></_>
        <_>
          <internalNodes>
            0 -1 377 -5.5271942983381450e-05</internalNodes>
          <leafValues>
            1.2753054499626160e-01 -1.5003393590450287e-01</leafValues></_>
        <_>
          <internalNodes>
            0 -1 32 4.8002465628087521e-03</internalNodes>
          <leafValues>
            -8.1338182091712952e-02 2.1851845085620880e-01</leafValues></_>
        <_>
          <internalNodes>
            0 -1 290 8.4072723984718323e-03</internalNodes>
          <leafValues>
            -8.5051290690898895e-02 2.0255339145660400e-01</leafValues></_>
        <_>
          <internalNodes>
            0 -1 195 1.6751717776060104e-02</internalNodes>
          <leafValues>
            4.7925118356943130e-02 -4.5758384466171265e-01</leafValues></_>
        <_>
          <internalNodes>
            0 -1 657 1.4337476342916489e-02</internalNodes>
          <leafValues>
            2.1721402183175087e-02 -6.4592045545578003e-01</leafValues></_>
        <_>
          <internalNodes>
            0 -1 258 1.5586756635457277e-03</internalNodes>
          <leafValues>
            -9.4859175384044647e-02 1.7167474329471588e-01</leafValues></_>
        <_>
          <internalNodes>
            0 -1 559 4.9061472527682781e-03</internalNodes>
          <leafValues>
            -6.4974084496498108e-02 2.5101152062416077e-01</leafValues></_></weakClassifiers></_>
    <!-- stage 6 -->
    <_>
      <maxWeakCount>90</maxWeakCount>
      <stageThreshold>-8.5135418176651001e-01</stageThreshold>
      <weakClassifiers>
        <_>
          <internalNodes>
            0 -1 284 -2.8373661916702986e-03</internalNodes>
          <leafValues>
            5.1048952341079712e-01 7.5630255043506622e-02</leafValues></_>
        <_>
          <internalNodes>
            0 -1 353 -8.7433606386184692e-03</internalNodes>
          <leafValues>
            2.3722688853740692e-01 -9.6521042287349701e-02</leafValues></_>
        <_>
          <internalNodes>
            0 -1 358 -7.0812168996781111e-04</internalNodes>
          <leafValues>
            -2.9505965113639832e-01 7.8976437449455261e-02</leafValues></_>
        <_>
          <internalNodes>
            0 -1 105 -3.0720267444849014e-02</internalNodes>
          <leafValues>
            -6.6232788562774658e-01 -1.2396471574902534e-02</leafValues></_>
        <_>
          <internalNodes>
            0 -1 600 -7.8924857079982758e-03</internalNodes>
          <leafValues>
            3.0594041943550110e-01 -6.7860439419746399e-02</leafValues></_>
        <_>
          <internalNodes>
            0 -1 780 2.0460991072468460e-04</internalNodes>
          <leafValues>
            -1.5479251742362976e-01 1.7649699747562408e-01</leafValues></_>
        <_>
          <internalNodes>
            0 -1 674 -2.5232932530343533e-03</internalNodes>
          <leafValues>
            -3.8396516442298889e-01 4.4694568961858749e-02</leafValues></_>
        <_>
          <internalNodes>
            0 -1 204 7.7456953004002571e-03</internalNodes>
          <leafValues>
            7.2970390319824219e-02 -3.2624223828315735e-01</leafValues></_>
        <_>
          <internalNodes>
            0 -1 278 4.4311629608273506e-05</internalNodes>
          <leafValues>
            -1.5865440666675568e-01 1.2620669603347778e-01</leafValues></_>
        <_>
          <internalNodes>
            0 -1 156 -1.4349382370710373e-02</internalNodes>
          <leafValues>
            -5.9255397319793701e-01 3.5049155354499817e-02</leafValues></_>
        <_>
          <internalNodes>
            0 -1 669 4.3978043831884861e-03</internalNodes>
          <leafValues>
            1.4567456208169460e-02 -6.6580569744110107e-01</leafValues></_>
        <_>
          <internalNodes>
            0 -1 338 2.7792040258646011e-02</internalNodes>
          <leafValues>
            -3.5233721137046814e-02 5.2838498353958130e-01</leafValues></_>
        <_>
          <internalNodes>
            0 -1 372 -6.2878616154193878e-03</internalNodes>
          <leafValues>
            3.7039387226104736e-01 -4.4231675565242767e-02</leafValues></_>
        <_>
          <internalNodes>
            0 -1 287 -1.5569230541586876e-02</internalNodes>
          <leafValues>
            -5.0582438707351685e-01 3.4234389662742615e-02</leafValues></_>
        <_>
          <internalNodes>
            0 -1 475 2.1210771054029465e-02</internalNodes>
          <leafValues>
            -8.2498751580715179e-02 2.3751154541969299e-01</leafValues></_>
        <_>
          <internalNodes>
            0 -1 649 3.2159008085727692e-02</internalNodes>
          <leafValues>
            6.6292829811573029e-02 -3.1155607104301453e-01</leafValues></_>
        <_>
          <internalNodes>
            0 -1 175 2.2763555170968175e-04</internalNodes>
          <leafValues>
            -1.3717637956142426e-01 1.3915017247200012e-01</leafValues></_>
        <_>
          <internalNodes>
            0 -1 631 1.0519661940634251e-02</internalNodes>
          <leafValues>
            1.3831301592290401e-02 -8.8151103258132935e-01</leafValues></_>
        <_>
          <internalNodes>
            0 -1 578 2.5089394301176071e-02</internalNodes>
          <leafValues>
            -6.7143246531486511e-02 2.8070300817489624e-01</leafValues></_>
        <_>
          <internalNodes>
            0 -1 720 1.3713641092181206e-03</internalNodes>
          <leafValues>
            -1.1119737476110458e-01 1.7787449061870575e-01</leafValues></_>
        <_>
          <internalNodes>
            0 -1 113 -1.3332349248230457e-02</internalNodes>
          <leafValues>
            2.7436947822570801e-01 -6.9418437778949738e-02</leafValues></_>
        <_>
          <internalNodes>
            0 -1 213 1.3779327273368835e-02</internalNodes>
          <leafValues>
            -5.4652366787195206e-02 3.3645433187484741e-01</leafValues></_>
        <_>
          <internalNodes>
            0 -1 800 7.8357160091400146e-03</internalNodes>
          <leafValues>
            3.5744171589612961e-02 -6.2432783842086792e-01</leafValues></_>
        <_>
          <internalNodes>
            0 -1 819 -7.0285145193338394e-04</internalNodes>
          <leafValues>
            1.8826270103454590e-01 -9.2912457883358002e-02</leafValues></_>
        <_>
          <internalNodes>
            0 -1 161 -1.4671037904918194e-02</internalNodes>
          <leafValues>
            2.0454692840576172e-01 -7.9137057065963745e-02</leafValues></_>
        <_>
          <internalNodes>
            0 -1 320 8.9075509458780289e-04</internalNodes>
          <leafValues>
            -1.0962723940610886e-01 1.6545534133911133e-01</leafValues></_>
        <_>
          <internalNodes>
            0 -1 366 2.8871946036815643e-02</internalNodes>
          <leafValues>
            3.4485403448343277e-02 -5.0883525609970093e-01</leafValues></_>
        <_>
          <internalNodes>
            0 -1 260 -6.0629278421401978e-02</internalNodes>
          <leafValues>
            -6.4661967754364014e-01 2.4301189929246902e-02</leafValues></_>
        <_>
          <internalNodes>
            0 -1 326 1.7061481252312660e-02</internalNodes>
          <leafValues>
            -5.6170754134654999e-02 3.2071855664253235e-01</leafValues></_>
        <_>
          <internalNodes>
            0 -1 341 5.7720821350812912e-03</internalNodes>
          <leafValues>
            3.2482057809829712e-02 -5.9730970859527588e-01</leafValues></_>
        <_>
          <internalNodes>
            0 -1 202 3.9966460317373276e-02</internalNodes>
          <leafValues>
            2.1362518891692162e-02 -6.6846489906311035e-01</leafValues></_>
        <_>
          <internalNodes>
            0 -1 198 -4.5107662677764893e-02</internalNodes>
          <leafValues>
            -9.2486572265625000e-01 1.2236700393259525e-02</leafValues></_>
        <_>
          <internalNodes>
            0 -1 706 -3.9166584610939026e-03</internalNodes>
          <leafValues>
            -5.1023811101913452e-01 2.5076761841773987e-02</leafValues></_>
        <_>
          <internalNodes>
            0 -1 592 -2.4334583431482315e-03</internalNodes>
          <leafValues>
            1.7530341446399689e-01 -1.0037566721439362e-01</leafValues></_>
        <_>
          <internalNodes>
            0 -1 341 1.4024398114997894e-04</internalNodes>
          <leafValues>
            -1.4188665151596069e-01 1.0988833755254745e-01</leafValues></_>
        <_>
          <internalNodes>
            0 -1 58 -1.0490310378372669e-03</internalNodes>
          <leafValues>
            1.8481805920600891e-01 -8.2946524024009705e-02</leafValues></_>
        <_>
          <internalNodes>
            0 -1 67 -4.7445502132177353e-03</internalNodes>
          <leafValues>
            1.8099479377269745e-01 -9.0433128178119659e-02</leafValues></_>
        <_>
          <internalNodes>
            0 -1 870 -5.7815387845039368e-03</internalNodes>
          <leafValues>
            -2.6305180788040161e-01 5.7838201522827148e-02</leafValues></_>
        <_>
          <internalNodes>
            0 -1 504 4.7527309507131577e-02</internalNodes>
          <leafValues>
            2.3236986249685287e-02 -6.4972871541976929e-01</leafValues></_>
        <_>
          <internalNodes>
            0 -1 850 -3.8340771570801735e-03</internalNodes>
          <leafValues>
            2.4851150810718536e-01 -6.3916370272636414e-02</leafValues></_>
        <_>
          <internalNodes>
            0 -1 826 3.2475493848323822e-02</internalNodes>
          <leafValues>
            3.8936745375394821e-02 -3.9587098360061646e-01</leafValues></_>
        <_>
          <internalNodes>
            0 -1 239 1.8707117997109890e-03</internalNodes>
          <leafValues>
            -8.3961486816406250e-02 1.7520901560783386e-01</leafValues></_>
        <_>
          <internalNodes>
            0 -1 461 -3.3876053057610989e-03</internalNodes>
          <leafValues>
            1.6590772569179535e-01 -9.2870108783245087e-02</leafValues></_>
        <_>
          <internalNodes>
            0 -1 690 -9.2106349766254425e-03</internalNodes>
          <leafValues>
            -4.4571879506111145e-01 3.7013541907072067e-02</leafValues></_>
        <_>
          <internalNodes>
            0 -1 861 -6.6679192241281271e-04</internalNodes>
          <leafValues>
            1.5614281594753265e-01 -9.0311251580715179e-02</leafValues></_>
        <_>
          <internalNodes>
            0 -1 815 -5.5359512567520142e-02</internalNodes>
          <leafValues>
            2.3022885620594025e-01 -6.4894989132881165e-02</leafValues></_>
        <_>
          <internalNodes>
            0 -1 890 1.2746256543323398e-03</internalNodes>
          <leafValues>
            -1.0106339305639267e-01 1.6162453591823578e-01</leafValues></_>
        <_>
          <internalNodes>
            0 -1 427 -1.0594753548502922e-02</internalNodes>
          <leafValues>
            2.7489975094795227e-01 -5.3461693227291107e-02</leafValues></_>
        <_>
          <internalNodes>
            0 -1 275 -2.6525791734457016e-02</internalNodes>
          <leafValues>
            -2.6688206195831299e-01 6.8347290158271790e-02</leafValues></_>
        <_>
          <internalNodes>
            0 -1 339 -1.4650912955403328e-02</internalNodes>
          <leafValues>
            2.7297294139862061e-01 -6.0384381562471390e-02</leafValues></_>
        <_>
          <internalNodes>
            0 -1 171 -4.4992845505475998e-04</internalNodes>
          <leafValues>
            9.1843411326408386e-02 -1.8518890440464020e-01</leafValues></_>
        <_>
          <internalNodes>
            0 -1 457 1.3278616592288017e-02</internalNodes>
          <leafValues>
            2.9048066586256027e-02 -5.5368024110794067e-01</leafValues></_>
        <_>
          <internalNodes>
            0 -1 662 1.7953302711248398e-02</internalNodes>
          <leafValues>
            -8.0852240324020386e-02 2.2027690708637238e-01</leafValues></_>
        <_>
          <internalNodes>
            0 -1 645 7.3802389670163393e-04</internalNodes>
          <leafValues>
            -8.7372057139873505e-02 1.8469478189945221e-01</leafValues></_>
        <_>
          <internalNodes>
            0 -1 164 -6.4326720312237740e-03</internalNodes>
          <leafValues>
            -4.0833058953285217e-01 3.8693461567163467e-02</leafValues></_>
        <_>
          <internalNodes>
            0 -1 559 -3.6205071955919266e-03</internalNodes>
          <leafValues>
            1.9507735967636108e-01 -8.0906562507152557e-02</leafValues></_>
        <_>
          <internalNodes>
            0 -1 157 4.8862732946872711e-03</internalNodes>
          <leafValues>
            6.3548088073730469e-02 -2.6454704999923706e-01</leafValues></_>
        <_>
          <internalNodes>
            0 -1 777 -2.8054106980562210e-02</internalNodes>
          <leafValues>
            -5.9679979085922241e-01 2.4260757490992546e-02</leafValues></_>
        <_>
          <internalNodes>
            0 -1 560 1.9577904604375362e-03</internalNodes>
          <leafValues>
            -9.4132266938686371e-02 1.6848765313625336e-01</leafValues></_>
        <_>
          <internalNodes>
            0 -1 439 6.2423199415206909e-02</internalNodes>
          <leafValues>
            2.1000668406486511e-02 -7.5514113903045654e-01</leafValues></_>
        <_>
          <internalNodes>
            0 -1 710 4.7356444410979748e-03</internalNodes>
          <leafValues>
            -8.0401353538036346e-02 1.9358983635902405e-01</leafValues></_>
        <_>
          <internalNodes>
            0 -1 740 2.3717987351119518e-03</internalNodes>
          <leafValues>
            -7.9199068248271942e-02 1.9362778961658478e-01</leafValues></_>
        <_>
          <internalNodes>
            0 -1 99 4.6778200194239616e-03</internalNodes>
          <leafValues>
            2.4686070159077644e-02 -6.3918232917785645e-01</leafValues></_>
        <_>
          <internalNodes>
            0 -1 761 -4.0464542806148529e-02</internalNodes>
          <leafValues>
            -5.7294821739196777e-01 2.2971928119659424e-02</leafValues></_>
        <_>
          <internalNodes>
            0 -1 307 2.3615171015262604e-01</internalNodes>
          <leafValues>
            2.8157562017440796e-02 -4.8482251167297363e-01</leafValues></_>
        <_>
          <internalNodes>
            0 -1 278 -1.1546234600245953e-03</internalNodes>
          <leafValues>
            -2.2422134876251221e-01 7.1878589689731598e-02</leafValues></_>
        <_>
          <internalNodes>
            0 -1 363 2.7826224686577916e-04</internalNodes>
          <leafValues>
            -1.3404275476932526e-01 1.2749029695987701e-01</leafValues></_>
        <_>
          <internalNodes>
            0 -1 14 1.2126361019909382e-02</internalNodes>
          <leafValues>
            -7.2637893259525299e-02 2.1769836544990540e-01</leafValues></_>
        <_>
          <internalNodes>
            0 -1 789 2.6464087422937155e-03</internalNodes>
          <leafValues>
            3.7700947374105453e-02 -4.3880891799926758e-01</leafValues></_>
        <_>
          <internalNodes>
            0 -1 667 1.7627593129873276e-02</internalNodes>
          <leafValues>
            2.8148343786597252e-02 -5.3223794698715210e-01</leafValues></_>
        <_>
          <internalNodes>
            0 -1 885 -1.1215915903449059e-02</internalNodes>
          <leafValues>
            2.1889573335647583e-01 -7.2099231183528900e-02</leafValues></_>
        <_>
          <internalNodes>
            0 -1 825 -1.3624532148241997e-02</internalNodes>
          <leafValues>
            1.9985765218734741e-01 -1.0425583273172379e-01</leafValues></_>
        <_>
          <internalNodes>
            0 -1 897 4.2882366105914116e-03</internalNodes>
          <leafValues>
            3.9917275309562683e-02 -3.9876964688301086e-01</leafValues></_>
        <_>
          <internalNodes>
            0 -1 47 -2.8397359419614077e-03</internalNodes>
          <leafValues>
            1.8194720149040222e-01 -8.6737900972366333e-02</leafValues></_>
        <_>
          <internalNodes>
            0 -1 188 -5.2410097850952297e-05</internalNodes>
          <leafValues>
            1.0584016889333725e-01 -1.4263603091239929e-01</leafValues></_>
        <_>
          <internalNodes>
            0 -1 109 3.5327125806361437e-04</internalNodes>
          <leafValues>
            -9.2847116291522980e-02 1.5811488032341003e-01</leafValues></_>
        <_>
          <internalNodes>
            0 -1 247 2.4832833558320999e-02</internalNodes>
          <leafValues>
            1.8362136557698250e-02 -7.6619613170623779e-01</leafValues></_>
        <_>
          <internalNodes>
            0 -1 100 1.4976790407672524e-03</internalNodes>
          <leafValues>
            -9.5804378390312195e-02 1.5235419571399689e-01</leafValues></_>
        <_>
          <internalNodes>
            0 -1 719 1.3242735527455807e-02</internalNodes>
          <leafValues>
            5.0950314849615097e-02 -2.6891335844993591e-01</leafValues></_>
        <_>
          <internalNodes>
            0 -1 44 -5.9501761570572853e-03</internalNodes>
          <leafValues>
            1.5590080618858337e-01 -8.4780648350715637e-02</leafValues></_>
        <_>
          <internalNodes>
            0 -1 633 -1.9640652462840080e-03</internalNodes>
          <leafValues>
            1.6802731156349182e-01 -8.6997970938682556e-02</leafValues></_>
        <_>
          <internalNodes>
            0 -1 721 2.2171316668391228e-03</internalNodes>
          <leafValues>
            4.0962178260087967e-02 -3.6078593134880066e-01</leafValues></_>
        <_>
          <internalNodes>
            0 -1 714 2.5960572529584169e-03</internalNodes>
          <leafValues>
            -7.7089898288249969e-02 1.7576916515827179e-01</leafValues></_>
        <_>
          <internalNodes>
            0 -1 628 8.5753388702869415e-03</internalNodes>
          <leafValues>
            1.9902925938367844e-02 -7.6830637454986572e-01</leafValues></_>
        <_>
          <internalNodes>
            0 -1 490 4.0717953816056252e-03</internalNodes>
          <leafValues>
            -7.3665827512741089e-02 1.9240903854370117e-01</leafValues></_>
        <_>
          <internalNodes>
            0 -1 437 2.5353110395371914e-03</internalNodes>
          <leafValues>
            -8.3996027708053589e-02 2.0181493461132050e-01</leafValues></_>
        <_>
          <internalNodes>
            0 -1 606 4.1064145043492317e-03</internalNodes>
          <leafValues>
            -8.0418221652507782e-02 2.1784274280071259e-01</leafValues></_>
        <_>
          <internalNodes>
            0 -1 377 1.8277417984791100e-04</internalNodes>
          <leafValues>
            9.6669137477874756e-02 -1.5719312429428101e-01</leafValues></_>
        <_>
          <internalNodes>
            0 -1 52 -8.4284925833344460e-03</internalNodes>
          <leafValues>
            -3.5116463899612427e-01 3.8436729460954666e-02</leafValues></_>
        <_>
          <internalNodes>
            0 -1 280 6.5235467627644539e-04</internalNodes>
          <leafValues>
            -8.2991667091846466e-02 1.7352840304374695e-01</leafValues></_></weakClassifiers></_>
    <!-- stage 7 -->
    <_>
      <maxWeakCount>99</maxWeakCount>
      <stageThreshold>-8.1459879875183105e-01</stageThreshold>
      <weakClassifiers>
        <_>
          <internalNodes>
            0 -1 352 4.7878660261631012e-03</internalNodes>
          <leafValues>
            9.1991342604160309e-02 5.0613498687744141e-01</leafValues></_>
        <_>
          <internalNodes>
            0 -1 218 1.5796639490872622e-04</internalNodes>
          <leafValues>
            1.2443297356367111e-01 -2.0237165689468384e-01</leafValues></_>
        <_>
          <internalNodes>
            0 -1 298 -4.0453956899000332e-05</internalNodes>
          <leafValues>
            1.2398424744606018e-01 -1.9006671011447906e-01</leafValues></_>
        <_>
          <internalNodes>
            0 -1 129 8.7883807718753815e-03</internalNodes>
          <leafValues>
            3.8666628301143646e-02 -5.1040983200073242e-01</leafValues></_>
        <_>
          <internalNodes>
            0 -1 555 3.5471310839056969e-03</internalNodes>
          <leafValues>
            -6.9551020860671997e-02 2.9846394062042236e-01</leafValues></_>
        <_>
          <internalNodes>
            0 -1 218 -2.5071268901228905e-03</internalNodes>
          <leafValues>
            -4.6793058514595032e-01 2.3970881476998329e-02</leafValues></_>
        <_>
          <internalNodes>
            0 -1 283 6.9741248153150082e-03</internalNodes>
          <leafValues>
            -6.5835878252983093e-02 2.6437991857528687e-01</leafValues></_>
        <_>
          <internalNodes>
            0 -1 238 -1.8089441582560539e-02</internalNodes>
          <leafValues>
            2.6215779781341553e-01 -8.6993135511875153e-02</leafValues></_>
        <_>
          <internalNodes>
            0 -1 20 -1.1299237608909607e-02</internalNodes>
          <leafValues>
            3.1473305821418762e-01 -6.5390288829803467e-02</leafValues></_>
        <_>
          <internalNodes>
            0 -1 618 -5.4922491312026978e-02</internalNodes>
          <leafValues>
            -9.0555781126022339e-01 1.7746679484844208e-02</leafValues></_>
        <_>
          <internalNodes>
            0 -1 339 4.5830782502889633e-02</internalNodes>
          <leafValues>
            -2.3129113018512726e-02 8.2622784376144409e-01</leafValues></_>
        <_>
          <internalNodes>
            0 -1 678 4.4549778103828430e-03</internalNodes>
          <leafValues>
            8.0810144543647766e-02 -2.4082568287849426e-01</leafValues></_>
        <_>
          <internalNodes>
            0 -1 212 -6.5910080447793007e-03</internalNodes>
          <leafValues>
            4.1284555196762085e-01 -5.1698848605155945e-02</leafValues></_>
        <_>
          <internalNodes>
            0 -1 564 5.3880652412772179e-03</internalNodes>
          <leafValues>
            4.8614040017127991e-02 -3.5950118303298950e-01</leafValues></_>
        <_>
          <internalNodes>
            0 -1 341 -1.4513544738292694e-03</internalNodes>
          <leafValues>
            -2.8776639699935913e-01 6.7196510732173920e-02</leafValues></_>
        <_>
          <internalNodes>
            0 -1 599 7.4218022637069225e-03</internalNodes>
          <leafValues>
            -7.5592629611492157e-02 2.5784713029861450e-01</leafValues></_>
        <_>
          <internalNodes>
            0 -1 770 6.0265166684985161e-03</internalNodes>
          <leafValues>
            2.7980161830782890e-02 -6.6081845760345459e-01</leafValues></_>
        <_>
          <internalNodes>
            0 -1 794 1.3686718884855509e-03</internalNodes>
          <leafValues>
            -8.5028998553752899e-02 1.9873376190662384e-01</leafValues></_>
        <_>
          <internalNodes>
            0 -1 684 3.4002470783889294e-03</internalNodes>
          <leafValues>
            -8.1272237002849579e-02 2.1583946049213409e-01</leafValues></_>
        <_>
          <internalNodes>
            0 -1 315 4.4840380549430847e-02</internalNodes>
          <leafValues>
            -9.7532019019126892e-02 2.0971755683422089e-01</leafValues></_>
        <_>
          <internalNodes>
            0 -1 665 1.9920344930142164e-03</internalNodes>
          <leafValues>
            -1.0149408131837845e-01 2.1644622087478638e-01</leafValues></_>
        <_>
          <internalNodes>
            0 -1 607 -6.6379532217979431e-03</internalNodes>
          <leafValues>
            -4.4199615716934204e-01 3.7162814289331436e-02</leafValues></_>
        <_>
          <internalNodes>
            0 -1 605 4.1261669248342514e-03</internalNodes>
          <leafValues>
            2.9903946444392204e-02 -5.5548650026321411e-01</leafValues></_>
        <_>
          <internalNodes>
            0 -1 515 5.3894580341875553e-03</internalNodes>
          <leafValues>
            -6.0598280280828476e-02 2.6674261689186096e-01</leafValues></_>
        <_>
          <internalNodes>
            0 -1 368 4.7310758382081985e-03</internalNodes>
          <leafValues>
            6.5490715205669403e-02 -2.7011707425117493e-01</leafValues></_>
        <_>
          <internalNodes>
            0 -1 291 -1.0668862611055374e-02</internalNodes>
          <leafValues>
            -2.8992766141891479e-01 6.0173161327838898e-02</leafValues></_>
        <_>
          <internalNodes>
            0 -1 339 -9.0780798345804214e-03</internalNodes>
          <leafValues>
            2.0084106922149658e-01 -7.6727658510208130e-02</leafValues></_>
        <_>
          <internalNodes>
            0 -1 738 1.7913166666403413e-03</internalNodes>
          <leafValues>
            -7.8668929636478424e-02 2.2746098041534424e-01</leafValues></_>
        <_>
          <internalNodes>
            0 -1 141 -5.9086619876325130e-03</internalNodes>
          <leafValues>
            1.2875670194625854e-01 -1.3380698859691620e-01</leafValues></_>
        <_>
          <internalNodes>
            0 -1 278 3.8115526549518108e-03</internalNodes>
          <leafValues>
            2.9592363163828850e-02 -5.1428490877151489e-01</leafValues></_>
        <_>
          <internalNodes>
            0 -1 474 1.5619391575455666e-02</internalNodes>
          <leafValues>
            -8.7123967707157135e-02 1.9242732226848602e-01</leafValues></_>
        <_>
          <internalNodes>
            0 -1 149 -3.1638693064451218e-02</internalNodes>
          <leafValues>
            2.6114538311958313e-01 -7.3017090559005737e-02</leafValues></_>
        <_>
          <internalNodes>
            0 -1 632 2.6554898358881474e-03</internalNodes>
          <leafValues>
            4.2973916977643967e-02 -3.7623754143714905e-01</leafValues></_>
        <_>
          <internalNodes>
            0 -1 336 4.5545632019639015e-03</internalNodes>
          <leafValues>
            2.3269154131412506e-02 -6.5916681289672852e-01</leafValues></_>
        <_>
          <internalNodes>
            0 -1 432 -3.2421709038317204e-03</internalNodes>
          <leafValues>
            1.9627228379249573e-01 -8.2461960613727570e-02</leafValues></_>
        <_>
          <internalNodes>
            0 -1 266 -5.2325916476547718e-04</internalNodes>
          <leafValues>
            -1.7634980380535126e-01 9.1697268187999725e-02</leafValues></_>
        <_>
          <internalNodes>
            0 -1 524 -6.0392869636416435e-03</internalNodes>
          <leafValues>
            -5.7369250059127808e-01 2.6668170467019081e-02</leafValues></_>
        <_>
          <internalNodes>
            0 -1 877 4.3672779574990273e-03</internalNodes>
          <leafValues>
            -5.8451116085052490e-02 2.8092363476753235e-01</leafValues></_>
        <_>
          <internalNodes>
            0 -1 680 -2.3567395284771919e-02</internalNodes>
          <leafValues>
            -4.0760490298271179e-01 5.1216918975114822e-02</leafValues></_>
        <_>
          <internalNodes>
            0 -1 750 -2.8633968904614449e-03</internalNodes>
          <leafValues>
            2.4643947184085846e-01 -6.9571927189826965e-02</leafValues></_>
        <_>
          <internalNodes>
            0 -1 306 8.6389601230621338e-02</internalNodes>
          <leafValues>
            -2.7008779346942902e-02 6.1931574344635010e-01</leafValues></_>
        <_>
          <internalNodes>
            0 -1 857 9.6717420965433121e-03</internalNodes>
          <leafValues>
            3.9536394178867340e-02 -3.9701941609382629e-01</leafValues></_>
        <_>
          <internalNodes>
            0 -1 866 3.7428602576255798e-02</internalNodes>
          <leafValues>
            2.4895587936043739e-02 -5.4132825136184692e-01</leafValues></_>
        <_>
          <internalNodes>
            0 -1 872 4.7424572403542697e-04</internalNodes>
          <leafValues>
            -1.0595063865184784e-01 1.5582811832427979e-01</leafValues></_>
        <_>
          <internalNodes>
            0 -1 400 2.2128172218799591e-02</internalNodes>
          <leafValues>
            3.0259009450674057e-02 -4.3424287438392639e-01</leafValues></_>
        <_>
          <internalNodes>
            0 -1 402 -1.3236235827207565e-02</internalNodes>
          <leafValues>
            -5.5089807510375977e-01 2.6918446645140648e-02</leafValues></_>
        <_>
          <internalNodes>
            0 -1 450 4.0609613060951233e-03</internalNodes>
          <leafValues>
            2.0319782197475433e-02 -6.1497479677200317e-01</leafValues></_>
        <_>
          <internalNodes>
            0 -1 419 2.5099042803049088e-02</internalNodes>
          <leafValues>
            -3.5495676100254059e-02 4.5169270038604736e-01</leafValues></_>
        <_>
          <internalNodes>
            0 -1 449 4.9878349527716637e-03</internalNodes>
          <leafValues>
            2.8592454269528389e-02 -5.8197396993637085e-01</leafValues></_>
        <_>
          <internalNodes>
            0 -1 158 1.0108501883223653e-03</internalNodes>
          <leafValues>
            -1.2094815820455551e-01 1.2415532767772675e-01</leafValues></_>
        <_>
          <internalNodes>
            0 -1 452 -4.7015625750645995e-04</internalNodes>
          <leafValues>
            1.3238808512687683e-01 -1.1182673275470734e-01</leafValues></_>
        <_>
          <internalNodes>
            0 -1 159 2.0058542490005493e-02</internalNodes>
          <leafValues>
            3.7008874118328094e-02 -4.0625584125518799e-01</leafValues></_>
        <_>
          <internalNodes>
            0 -1 136 1.3839460909366608e-02</internalNodes>
          <leafValues>
            2.7157841250300407e-02 -4.7240146994590759e-01</leafValues></_>
        <_>
          <internalNodes>
            0 -1 375 7.6339556835591793e-04</internalNodes>
          <leafValues>
            -9.8875887691974640e-02 1.4195893704891205e-01</leafValues></_>
        <_>
          <internalNodes>
            0 -1 655 6.8304552696645260e-03</internalNodes>
          <leafValues>
            1.9798241555690765e-02 -6.4350885152816772e-01</leafValues></_>
        <_>
          <internalNodes>
            0 -1 767 -2.3828558623790741e-03</internalNodes>
          <leafValues>
            2.3896561563014984e-01 -5.7506132870912552e-02</leafValues></_>
        <_>
          <internalNodes>
            0 -1 588 -5.3963355720043182e-02</internalNodes>
          <leafValues>
            -3.6014607548713684e-01 3.7514008581638336e-02</leafValues></_>
        <_>
          <internalNodes>
            0 -1 591 -6.5166153945028782e-04</internalNodes>
          <leafValues>
            1.3904643058776855e-01 -1.1199072003364563e-01</leafValues></_>
        <_>
          <internalNodes>
            0 -1 200 2.3456174880266190e-02</internalNodes>
          <leafValues>
            4.8511512577533722e-02 -2.8753906488418579e-01</leafValues></_>
        <_>
          <internalNodes>
            0 -1 119 -2.8484066948294640e-02</internalNodes>
          <leafValues>
            -3.6585819721221924e-01 3.8041308522224426e-02</leafValues></_>
        <_>
          <internalNodes>
            0 -1 782 2.8387610800564289e-03</internalNodes>
          <leafValues>
            -7.3483884334564209e-02 2.0079691708087921e-01</leafValues></_>
        <_>
          <internalNodes>
            0 -1 669 3.8178078830242157e-03</internalNodes>
          <leafValues>
            2.9519964009523392e-02 -4.8642906546592712e-01</leafValues></_>
        <_>
          <internalNodes>
            0 -1 550 -4.1900068521499634e-02</internalNodes>
          <leafValues>
            -7.6099365949630737e-01 1.4598337002098560e-02</leafValues></_>
        <_>
          <internalNodes>
            0 -1 308 5.8416046202182770e-02</internalNodes>
          <leafValues>
            -5.1346298307180405e-02 3.1486082077026367e-01</leafValues></_>
        <_>
          <internalNodes>
            0 -1 321 -2.9980619437992573e-03</internalNodes>
          <leafValues>
            2.0300315320491791e-01 -6.0687705874443054e-02</leafValues></_>
        <_>
          <internalNodes>
            0 -1 623 -1.1216014623641968e-02</internalNodes>
          <leafValues>
            -4.7962805628776550e-01 2.6091162115335464e-02</leafValues></_>
        <_>
          <internalNodes>
            0 -1 549 7.9857930541038513e-03</internalNodes>
          <leafValues>
            -5.8509398251771927e-02 2.5949436426162720e-01</leafValues></_>
        <_>
          <internalNodes>
            0 -1 536 -3.3931192010641098e-03</internalNodes>
          <leafValues>
            2.1549111604690552e-01 -6.4889572560787201e-02</leafValues></_>
        <_>
          <internalNodes>
            0 -1 771 4.4770343229174614e-03</internalNodes>
          <leafValues>
            2.5031980127096176e-02 -5.6535106897354126e-01</leafValues></_>
        <_>
          <internalNodes>
            0 -1 795 -1.1593786999583244e-02</internalNodes>
          <leafValues>
            -4.4003766775131226e-01 2.5924930348992348e-02</leafValues></_>
        <_>
          <internalNodes>
            0 -1 799 -7.2880473453551531e-04</internalNodes>
          <leafValues>
            1.7756946384906769e-01 -7.2161778807640076e-02</leafValues></_>
        <_>
          <internalNodes>
            0 -1 672 2.1435882896184921e-02</internalNodes>
          <leafValues>
            3.9341293275356293e-02 -3.6374795436859131e-01</leafValues></_>
        <_>
          <internalNodes>
            0 -1 729 8.1608805339783430e-04</internalNodes>
          <leafValues>
            -1.0539699345827103e-01 1.2440640479326248e-01</leafValues></_>
        <_>
          <internalNodes>
            0 -1 692 1.7555509693920612e-03</internalNodes>
          <leafValues>
            -5.0353504717350006e-02 2.5641301274299622e-01</leafValues></_>
        <_>
          <internalNodes>
            0 -1 146 1.3167958706617355e-02</internalNodes>
          <leafValues>
            3.2262783497571945e-02 -4.1988620162010193e-01</leafValues></_>
        <_>
          <internalNodes>
            0 -1 299 1.2038453714922071e-03</internalNodes>
          <leafValues>
            -8.5018604993820190e-02 1.5379722416400909e-01</leafValues></_>
        <_>
          <internalNodes>
            0 -1 263 3.1196224153973162e-04</internalNodes>
          <leafValues>
            -1.2647151947021484e-01 1.0465697199106216e-01</leafValues></_>
        <_>
          <internalNodes>
            0 -1 443 1.6507968539372087e-03</internalNodes>
          <leafValues>
            -4.5443087816238403e-02 3.3903342485427856e-01</leafValues></_>
        <_>
          <internalNodes>
            0 -1 434 1.9913190044462681e-03</internalNodes>
          <leafValues>
            -7.0814274251461029e-02 2.4597764015197754e-01</leafValues></_>
        <_>
          <internalNodes>
            0 -1 304 -1.1561133433133364e-03</internalNodes>
          <leafValues>
            1.6309487819671631e-01 -8.5143804550170898e-02</leafValues></_>
        <_>
          <internalNodes>
            0 -1 382 2.0581088960170746e-02</internalNodes>
          <leafValues>
            1.8453355878591537e-02 -8.3443009853363037e-01</leafValues></_>
        <_>
          <internalNodes>
            0 -1 511 5.4867332801222801e-03</internalNodes>
          <leafValues>
            1.1543206870555878e-02 -8.3692121505737305e-01</leafValues></_>
        <_>
          <internalNodes>
            0 -1 669 -2.9148380272090435e-03</internalNodes>
